digraph Tree {
node [shape=box, style="filled", color="black", fontname="helvetica"] ;
edge [fontname="helvetica"] ;
0 [label="alcohol <= 11.0\ngini = 0.857\nsamples = 10010\nvalue = [1430, 1430, 1430, 1430, 1430, 1430, 1430]\nclass = 6", fillcolor="#ffffff"] ;
1 [label="free sulfur dioxide <= 83.041\ngini = 0.81\nsamples = 5369\nvalue = [1184, 1128, 1280, 947, 456, 165, 209]\nclass = 7", fillcolor="#fafefb"] ;
0 -> 1 [labeldistance=2.5, labelangle=45, headlabel="True"] ;
2 [label="fixed acidity <= 8.0\ngini = 0.811\nsamples = 5042\nvalue = [891, 1107, 1273, 942, 455, 165, 209]\nclass = 7", fillcolor="#f7fef7"] ;
1 -> 2 ;
3 [label="volatile acidity <= 0.26\ngini = 0.787\nsamples = 4040\nvalue = [447, 960, 1183, 863, 435, 152, 0]\nclass = 7", fillcolor="#f1fdf2"] ;
2 -> 3 ;
4 [label="density <= 0.996\ngini = 0.786\nsamples = 1719\nvalue = [205, 121, 412, 531, 334, 116, 0]\nclass = 8", fillcolor="#edfdfc"] ;
3 -> 4 ;
5 [label="free sulfur dioxide <= 9.769\ngini = 0.75\nsamples = 1140\nvalue = [3, 93, 283, 395, 264, 102, 0]\nclass = 8", fillcolor="#e5fcfb"] ;
4 -> 5 ;
6 [label="residual sugar <= 1.172\ngini = 0.427\nsamples = 54\nvalue = [1, 39, 12, 2, 0, 0, 0]\nclass = 5", fillcolor="#d1ee80"] ;
5 -> 6 ;
7 [label="gini = 0.0\nsamples = 4\nvalue = [0, 0, 4, 0, 0, 0, 0]\nclass = 7", fillcolor="#39e54d"] ;
6 -> 7 ;
8 [label="sulphates <= 0.585\ngini = 0.364\nsamples = 50\nvalue = [1, 39, 8, 2, 0, 0, 0]\nclass = 5", fillcolor="#caec6d"] ;
6 -> 8 ;
9 [label="chlorides <= 0.079\ngini = 0.245\nsamples = 44\nvalue = [1, 38, 4, 1, 0, 0, 0]\nclass = 5", fillcolor="#c2e957"] ;
8 -> 9 ;
10 [label="alcohol <= 10.948\ngini = 0.138\nsamples = 41\nvalue = [1, 38, 2, 0, 0, 0, 0]\nclass = 5", fillcolor="#bde748"] ;
9 -> 10 ;
11 [label="volatile acidity <= 0.257\ngini = 0.05\nsamples = 39\nvalue = [0, 38, 1, 0, 0, 0, 0]\nclass = 5", fillcolor="#b9e63e"] ;
10 -> 11 ;
12 [label="gini = 0.0\nsamples = 35\nvalue = [0, 35, 0, 0, 0, 0, 0]\nclass = 5", fillcolor="#b7e539"] ;
11 -> 12 ;
13 [label="alcohol <= 10.323\ngini = 0.375\nsamples = 4\nvalue = [0, 3, 1, 0, 0, 0, 0]\nclass = 5", fillcolor="#cfee7b"] ;
11 -> 13 ;
14 [label="gini = 0.0\nsamples = 1\nvalue = [0, 0, 1, 0, 0, 0, 0]\nclass = 7", fillcolor="#39e54d"] ;
13 -> 14 ;
15 [label="gini = 0.0\nsamples = 3\nvalue = [0, 3, 0, 0, 0, 0, 0]\nclass = 5", fillcolor="#b7e539"] ;
13 -> 15 ;
16 [label="density <= 0.993\ngini = 0.5\nsamples = 2\nvalue = [1, 0, 1, 0, 0, 0, 0]\nclass = 6", fillcolor="#ffffff"] ;
10 -> 16 ;
17 [label="gini = 0.0\nsamples = 1\nvalue = [0, 0, 1, 0, 0, 0, 0]\nclass = 7", fillcolor="#39e54d"] ;
16 -> 17 ;
18 [label="gini = 0.0\nsamples = 1\nvalue = [1, 0, 0, 0, 0, 0, 0]\nclass = 6", fillcolor="#e58139"] ;
16 -> 18 ;
19 [label="sulphates <= 0.492\ngini = 0.444\nsamples = 3\nvalue = [0, 0, 2, 1, 0, 0, 0]\nclass = 7", fillcolor="#9cf2a6"] ;
9 -> 19 ;
20 [label="gini = 0.0\nsamples = 1\nvalue = [0, 0, 0, 1, 0, 0, 0]\nclass = 8", fillcolor="#39e5e2"] ;
19 -> 20 ;
21 [label="gini = 0.0\nsamples = 2\nvalue = [0, 0, 2, 0, 0, 0, 0]\nclass = 7", fillcolor="#39e54d"] ;
19 -> 21 ;
22 [label="pH <= 2.94\ngini = 0.5\nsamples = 6\nvalue = [0, 1, 4, 1, 0, 0, 0]\nclass = 7", fillcolor="#88ef94"] ;
8 -> 22 ;
23 [label="gini = 0.0\nsamples = 1\nvalue = [0, 1, 0, 0, 0, 0, 0]\nclass = 5", fillcolor="#b7e539"] ;
22 -> 23 ;
24 [label="residual sugar <= 4.2\ngini = 0.32\nsamples = 5\nvalue = [0, 0, 4, 1, 0, 0, 0]\nclass = 7", fillcolor="#6aec79"] ;
22 -> 24 ;
25 [label="gini = 0.0\nsamples = 3\nvalue = [0, 0, 3, 0, 0, 0, 0]\nclass = 7", fillcolor="#39e54d"] ;
24 -> 25 ;
26 [label="chlorides <= 0.042\ngini = 0.5\nsamples = 2\nvalue = [0, 0, 1, 1, 0, 0, 0]\nclass = 7", fillcolor="#ffffff"] ;
24 -> 26 ;
27 [label="gini = 0.0\nsamples = 1\nvalue = [0, 0, 1, 0, 0, 0, 0]\nclass = 7", fillcolor="#39e54d"] ;
26 -> 27 ;
28 [label="gini = 0.0\nsamples = 1\nvalue = [0, 0, 0, 1, 0, 0, 0]\nclass = 8", fillcolor="#39e5e2"] ;
26 -> 28 ;
29 [label="alcohol <= 10.006\ngini = 0.736\nsamples = 1086\nvalue = [2, 54, 271, 393, 264, 102, 0]\nclass = 8", fillcolor="#e1fbfb"] ;
5 -> 29 ;
30 [label="volatile acidity <= 0.236\ngini = 0.652\nsamples = 380\nvalue = [2, 21, 159, 151, 42, 5, 0]\nclass = 7", fillcolor="#f8fef9"] ;
29 -> 30 ;
31 [label="fixed acidity <= 6.516\ngini = 0.65\nsamples = 249\nvalue = [2, 8, 87, 112, 39, 1, 0]\nclass = 8", fillcolor="#e0fbfb"] ;
30 -> 31 ;
32 [label="sulphates <= 0.485\ngini = 0.538\nsamples = 104\nvalue = [2, 2, 43, 56, 1, 0, 0]\nclass = 8", fillcolor="#d5f9f9"] ;
31 -> 32 ;
33 [label="sulphates <= 0.395\ngini = 0.536\nsamples = 65\nvalue = [2, 0, 35, 27, 1, 0, 0]\nclass = 7", fillcolor="#d5fada"] ;
32 -> 33 ;
34 [label="citric acid <= 0.477\ngini = 0.398\nsamples = 16\nvalue = [0, 0, 3, 12, 1, 0, 0]\nclass = 8", fillcolor="#76edeb"] ;
33 -> 34 ;
35 [label="fixed acidity <= 5.75\ngini = 0.165\nsamples = 11\nvalue = [0, 0, 1, 10, 0, 0, 0]\nclass = 8", fillcolor="#4de8e5"] ;
34 -> 35 ;
36 [label="volatile acidity <= 0.17\ngini = 0.5\nsamples = 2\nvalue = [0, 0, 1, 1, 0, 0, 0]\nclass = 7", fillcolor="#ffffff"] ;
35 -> 36 ;
37 [label="gini = 0.0\nsamples = 1\nvalue = [0, 0, 0, 1, 0, 0, 0]\nclass = 8", fillcolor="#39e5e2"] ;
36 -> 37 ;
38 [label="gini = 0.0\nsamples = 1\nvalue = [0, 0, 1, 0, 0, 0, 0]\nclass = 7", fillcolor="#39e54d"] ;
36 -> 38 ;
39 [label="gini = 0.0\nsamples = 9\nvalue = [0, 0, 0, 9, 0, 0, 0]\nclass = 8", fillcolor="#39e5e2"] ;
35 -> 39 ;
40 [label="citric acid <= 0.515\ngini = 0.64\nsamples = 5\nvalue = [0, 0, 2, 2, 1, 0, 0]\nclass = 7", fillcolor="#ffffff"] ;
34 -> 40 ;
41 [label="sulphates <= 0.36\ngini = 0.444\nsamples = 3\nvalue = [0, 0, 2, 0, 1, 0, 0]\nclass = 7", fillcolor="#9cf2a6"] ;
40 -> 41 ;
42 [label="gini = 0.0\nsamples = 2\nvalue = [0, 0, 2, 0, 0, 0, 0]\nclass = 7", fillcolor="#39e54d"] ;
41 -> 42 ;
43 [label="gini = 0.0\nsamples = 1\nvalue = [0, 0, 0, 0, 1, 0, 0]\nclass = 4", fillcolor="#3956e5"] ;
41 -> 43 ;
44 [label="gini = 0.0\nsamples = 2\nvalue = [0, 0, 0, 2, 0, 0, 0]\nclass = 8", fillcolor="#39e5e2"] ;
40 -> 44 ;
45 [label="free sulfur dioxide <= 77.135\ngini = 0.478\nsamples = 49\nvalue = [2, 0, 32, 15, 0, 0, 0]\nclass = 7", fillcolor="#9cf2a6"] ;
33 -> 45 ;
46 [label="density <= 0.992\ngini = 0.435\nsamples = 47\nvalue = [0, 0, 32, 15, 0, 0, 0]\nclass = 7", fillcolor="#96f1a0"] ;
45 -> 46 ;
47 [label="gini = 0.0\nsamples = 3\nvalue = [0, 0, 0, 3, 0, 0, 0]\nclass = 8", fillcolor="#39e5e2"] ;
46 -> 47 ;
48 [label="alcohol <= 9.875\ngini = 0.397\nsamples = 44\nvalue = [0, 0, 32, 12, 0, 0, 0]\nclass = 7", fillcolor="#83ef90"] ;
46 -> 48 ;
49 [label="residual sugar <= 6.65\ngini = 0.313\nsamples = 36\nvalue = [0, 0, 29, 7, 0, 0, 0]\nclass = 7", fillcolor="#69eb78"] ;
48 -> 49 ;
50 [label="volatile acidity <= 0.138\ngini = 0.191\nsamples = 28\nvalue = [0, 0, 25, 3, 0, 0, 0]\nclass = 7", fillcolor="#51e862"] ;
49 -> 50 ;
51 [label="residual sugar <= 4.45\ngini = 0.5\nsamples = 4\nvalue = [0, 0, 2, 2, 0, 0, 0]\nclass = 7", fillcolor="#ffffff"] ;
50 -> 51 ;
52 [label="gini = 0.0\nsamples = 2\nvalue = [0, 0, 2, 0, 0, 0, 0]\nclass = 7", fillcolor="#39e54d"] ;
51 -> 52 ;
53 [label="gini = 0.0\nsamples = 2\nvalue = [0, 0, 0, 2, 0, 0, 0]\nclass = 8", fillcolor="#39e5e2"] ;
51 -> 53 ;
54 [label="alcohol <= 9.25\ngini = 0.08\nsamples = 24\nvalue = [0, 0, 23, 1, 0, 0, 0]\nclass = 7", fillcolor="#42e655"] ;
50 -> 54 ;
55 [label="total sulfur dioxide <= 118.5\ngini = 0.32\nsamples = 5\nvalue = [0, 0, 4, 1, 0, 0, 0]\nclass = 7", fillcolor="#6aec79"] ;
54 -> 55 ;
56 [label="gini = 0.0\nsamples = 4\nvalue = [0, 0, 4, 0, 0, 0, 0]\nclass = 7", fillcolor="#39e54d"] ;
55 -> 56 ;
57 [label="gini = 0.0\nsamples = 1\nvalue = [0, 0, 0, 1, 0, 0, 0]\nclass = 8", fillcolor="#39e5e2"] ;
55 -> 57 ;
58 [label="gini = 0.0\nsamples = 19\nvalue = [0, 0, 19, 0, 0, 0, 0]\nclass = 7", fillcolor="#39e54d"] ;
54 -> 58 ;
59 [label="residual sugar <= 7.25\ngini = 0.5\nsamples = 8\nvalue = [0, 0, 4, 4, 0, 0, 0]\nclass = 7", fillcolor="#ffffff"] ;
49 -> 59 ;
60 [label="gini = 0.0\nsamples = 2\nvalue = [0, 0, 0, 2, 0, 0, 0]\nclass = 8", fillcolor="#39e5e2"] ;
59 -> 60 ;
61 [label="volatile acidity <= 0.215\ngini = 0.444\nsamples = 6\nvalue = [0, 0, 4, 2, 0, 0, 0]\nclass = 7", fillcolor="#9cf2a6"] ;
59 -> 61 ;
62 [label="gini = 0.0\nsamples = 3\nvalue = [0, 0, 3, 0, 0, 0, 0]\nclass = 7", fillcolor="#39e54d"] ;
61 -> 62 ;
63 [label="density <= 0.995\ngini = 0.444\nsamples = 3\nvalue = [0, 0, 1, 2, 0, 0, 0]\nclass = 8", fillcolor="#9cf2f0"] ;
61 -> 63 ;
64 [label="gini = 0.0\nsamples = 1\nvalue = [0, 0, 1, 0, 0, 0, 0]\nclass = 7", fillcolor="#39e54d"] ;
63 -> 64 ;
65 [label="gini = 0.0\nsamples = 2\nvalue = [0, 0, 0, 2, 0, 0, 0]\nclass = 8", fillcolor="#39e5e2"] ;
63 -> 65 ;
66 [label="citric acid <= 0.238\ngini = 0.469\nsamples = 8\nvalue = [0, 0, 3, 5, 0, 0, 0]\nclass = 8", fillcolor="#b0f5f3"] ;
48 -> 66 ;
67 [label="gini = 0.0\nsamples = 3\nvalue = [0, 0, 3, 0, 0, 0, 0]\nclass = 7", fillcolor="#39e54d"] ;
66 -> 67 ;
68 [label="gini = 0.0\nsamples = 5\nvalue = [0, 0, 0, 5, 0, 0, 0]\nclass = 8", fillcolor="#39e5e2"] ;
66 -> 68 ;
69 [label="gini = 0.0\nsamples = 2\nvalue = [2, 0, 0, 0, 0, 0, 0]\nclass = 6", fillcolor="#e58139"] ;
45 -> 69 ;
70 [label="free sulfur dioxide <= 43.369\ngini = 0.402\nsamples = 39\nvalue = [0, 2, 8, 29, 0, 0, 0]\nclass = 8", fillcolor="#79edeb"] ;
32 -> 70 ;
71 [label="pH <= 3.514\ngini = 0.304\nsamples = 34\nvalue = [0, 2, 4, 28, 0, 0, 0]\nclass = 8", fillcolor="#61eae8"] ;
70 -> 71 ;
72 [label="density <= 0.993\ngini = 0.175\nsamples = 31\nvalue = [0, 0, 3, 28, 0, 0, 0]\nclass = 8", fillcolor="#4ee8e5"] ;
71 -> 72 ;
73 [label="gini = 0.0\nsamples = 2\nvalue = [0, 0, 2, 0, 0, 0, 0]\nclass = 7", fillcolor="#39e54d"] ;
72 -> 73 ;
74 [label="fixed acidity <= 6.505\ngini = 0.067\nsamples = 29\nvalue = [0, 0, 1, 28, 0, 0, 0]\nclass = 8", fillcolor="#40e6e3"] ;
72 -> 74 ;
75 [label="gini = 0.0\nsamples = 28\nvalue = [0, 0, 0, 28, 0, 0, 0]\nclass = 8", fillcolor="#39e5e2"] ;
74 -> 75 ;
76 [label="gini = 0.0\nsamples = 1\nvalue = [0, 0, 1, 0, 0, 0, 0]\nclass = 7", fillcolor="#39e54d"] ;
74 -> 76 ;
77 [label="fixed acidity <= 5.823\ngini = 0.444\nsamples = 3\nvalue = [0, 2, 1, 0, 0, 0, 0]\nclass = 5", fillcolor="#dbf29c"] ;
71 -> 77 ;
78 [label="gini = 0.0\nsamples = 1\nvalue = [0, 0, 1, 0, 0, 0, 0]\nclass = 7", fillcolor="#39e54d"] ;
77 -> 78 ;
79 [label="gini = 0.0\nsamples = 2\nvalue = [0, 2, 0, 0, 0, 0, 0]\nclass = 5", fillcolor="#b7e539"] ;
77 -> 79 ;
80 [label="pH <= 2.97\ngini = 0.32\nsamples = 5\nvalue = [0, 0, 4, 1, 0, 0, 0]\nclass = 7", fillcolor="#6aec79"] ;
70 -> 80 ;
81 [label="gini = 0.0\nsamples = 1\nvalue = [0, 0, 0, 1, 0, 0, 0]\nclass = 8", fillcolor="#39e5e2"] ;
80 -> 81 ;
82 [label="gini = 0.0\nsamples = 4\nvalue = [0, 0, 4, 0, 0, 0, 0]\nclass = 7", fillcolor="#39e54d"] ;
80 -> 82 ;
83 [label="free sulfur dioxide <= 27.755\ngini = 0.688\nsamples = 145\nvalue = [0, 6, 44, 56, 38, 1, 0]\nclass = 8", fillcolor="#e7fcfc"] ;
31 -> 83 ;
84 [label="fixed acidity <= 6.937\ngini = 0.531\nsamples = 39\nvalue = [0, 0, 22, 15, 2, 0, 0]\nclass = 7", fillcolor="#c5f7cb"] ;
83 -> 84 ;
85 [label="density <= 0.993\ngini = 0.278\nsamples = 6\nvalue = [0, 0, 1, 5, 0, 0, 0]\nclass = 8", fillcolor="#61eae8"] ;
84 -> 85 ;
86 [label="gini = 0.0\nsamples = 1\nvalue = [0, 0, 1, 0, 0, 0, 0]\nclass = 7", fillcolor="#39e54d"] ;
85 -> 86 ;
87 [label="gini = 0.0\nsamples = 5\nvalue = [0, 0, 0, 5, 0, 0, 0]\nclass = 8", fillcolor="#39e5e2"] ;
85 -> 87 ;
88 [label="density <= 0.993\ngini = 0.5\nsamples = 33\nvalue = [0, 0, 21, 10, 2, 0, 0]\nclass = 7", fillcolor="#a0f3aa"] ;
84 -> 88 ;
89 [label="chlorides <= 0.043\ngini = 0.375\nsamples = 4\nvalue = [0, 0, 0, 3, 1, 0, 0]\nclass = 8", fillcolor="#7beeec"] ;
88 -> 89 ;
90 [label="gini = 0.0\nsamples = 3\nvalue = [0, 0, 0, 3, 0, 0, 0]\nclass = 8", fillcolor="#39e5e2"] ;
89 -> 90 ;
91 [label="gini = 0.0\nsamples = 1\nvalue = [0, 0, 0, 0, 1, 0, 0]\nclass = 4", fillcolor="#3956e5"] ;
89 -> 91 ;
92 [label="residual sugar <= 2.628\ngini = 0.416\nsamples = 29\nvalue = [0, 0, 21, 7, 1, 0, 0]\nclass = 7", fillcolor="#81ee8e"] ;
88 -> 92 ;
93 [label="fixed acidity <= 7.9\ngini = 0.117\nsamples = 16\nvalue = [0, 0, 15, 0, 1, 0, 0]\nclass = 7", fillcolor="#46e759"] ;
92 -> 93 ;
94 [label="gini = 0.0\nsamples = 15\nvalue = [0, 0, 15, 0, 0, 0, 0]\nclass = 7", fillcolor="#39e54d"] ;
93 -> 94 ;
95 [label="gini = 0.0\nsamples = 1\nvalue = [0, 0, 0, 0, 1, 0, 0]\nclass = 4", fillcolor="#3956e5"] ;
93 -> 95 ;
96 [label="free sulfur dioxide <= 20.5\ngini = 0.497\nsamples = 13\nvalue = [0, 0, 6, 7, 0, 0, 0]\nclass = 8", fillcolor="#e3fbfb"] ;
92 -> 96 ;
97 [label="gini = 0.0\nsamples = 4\nvalue = [0, 0, 4, 0, 0, 0, 0]\nclass = 7", fillcolor="#39e54d"] ;
96 -> 97 ;
98 [label="free sulfur dioxide <= 25.5\ngini = 0.346\nsamples = 9\nvalue = [0, 0, 2, 7, 0, 0, 0]\nclass = 8", fillcolor="#72ecea"] ;
96 -> 98 ;
99 [label="gini = 0.0\nsamples = 6\nvalue = [0, 0, 0, 6, 0, 0, 0]\nclass = 8", fillcolor="#39e5e2"] ;
98 -> 99 ;
100 [label="density <= 0.995\ngini = 0.444\nsamples = 3\nvalue = [0, 0, 2, 1, 0, 0, 0]\nclass = 7", fillcolor="#9cf2a6"] ;
98 -> 100 ;
101 [label="gini = 0.0\nsamples = 2\nvalue = [0, 0, 2, 0, 0, 0, 0]\nclass = 7", fillcolor="#39e54d"] ;
100 -> 101 ;
102 [label="gini = 0.0\nsamples = 1\nvalue = [0, 0, 0, 1, 0, 0, 0]\nclass = 8", fillcolor="#39e5e2"] ;
100 -> 102 ;
103 [label="pH <= 3.111\ngini = 0.689\nsamples = 106\nvalue = [0, 6, 22, 41, 36, 1, 0]\nclass = 8", fillcolor="#f1fdfd"] ;
83 -> 103 ;
104 [label="fixed acidity <= 7.15\ngini = 0.499\nsamples = 21\nvalue = [0, 0, 10, 11, 0, 0, 0]\nclass = 8", fillcolor="#edfdfc"] ;
103 -> 104 ;
105 [label="alcohol <= 8.9\ngini = 0.469\nsamples = 16\nvalue = [0, 0, 10, 6, 0, 0, 0]\nclass = 7", fillcolor="#b0f5b8"] ;
104 -> 105 ;
106 [label="gini = 0.0\nsamples = 2\nvalue = [0, 0, 0, 2, 0, 0, 0]\nclass = 8", fillcolor="#39e5e2"] ;
105 -> 106 ;
107 [label="alcohol <= 9.373\ngini = 0.408\nsamples = 14\nvalue = [0, 0, 10, 4, 0, 0, 0]\nclass = 7", fillcolor="#88ef94"] ;
105 -> 107 ;
108 [label="residual sugar <= 0.95\ngini = 0.278\nsamples = 12\nvalue = [0, 0, 10, 2, 0, 0, 0]\nclass = 7", fillcolor="#61ea71"] ;
107 -> 108 ;
109 [label="gini = 0.0\nsamples = 1\nvalue = [0, 0, 0, 1, 0, 0, 0]\nclass = 8", fillcolor="#39e5e2"] ;
108 -> 109 ;
110 [label="citric acid <= 0.77\ngini = 0.165\nsamples = 11\nvalue = [0, 0, 10, 1, 0, 0, 0]\nclass = 7", fillcolor="#4de85f"] ;
108 -> 110 ;
111 [label="gini = 0.0\nsamples = 10\nvalue = [0, 0, 10, 0, 0, 0, 0]\nclass = 7", fillcolor="#39e54d"] ;
110 -> 111 ;
112 [label="gini = 0.0\nsamples = 1\nvalue = [0, 0, 0, 1, 0, 0, 0]\nclass = 8", fillcolor="#39e5e2"] ;
110 -> 112 ;
113 [label="gini = 0.0\nsamples = 2\nvalue = [0, 0, 0, 2, 0, 0, 0]\nclass = 8", fillcolor="#39e5e2"] ;
107 -> 113 ;
114 [label="gini = 0.0\nsamples = 5\nvalue = [0, 0, 0, 5, 0, 0, 0]\nclass = 8", fillcolor="#39e5e2"] ;
104 -> 114 ;
115 [label="citric acid <= 0.31\ngini = 0.671\nsamples = 85\nvalue = [0, 6, 12, 30, 36, 1, 0]\nclass = 4", fillcolor="#e9edfc"] ;
103 -> 115 ;
116 [label="total sulfur dioxide <= 101.0\ngini = 0.666\nsamples = 31\nvalue = [0, 4, 8, 15, 4, 0, 0]\nclass = 8", fillcolor="#c3f7f6"] ;
115 -> 116 ;
117 [label="sulphates <= 0.43\ngini = 0.32\nsamples = 5\nvalue = [0, 0, 1, 0, 4, 0, 0]\nclass = 4", fillcolor="#6a80ec"] ;
116 -> 117 ;
118 [label="gini = 0.0\nsamples = 1\nvalue = [0, 0, 1, 0, 0, 0, 0]\nclass = 7", fillcolor="#39e54d"] ;
117 -> 118 ;
119 [label="gini = 0.0\nsamples = 4\nvalue = [0, 0, 0, 0, 4, 0, 0]\nclass = 4", fillcolor="#3956e5"] ;
117 -> 119 ;
120 [label="density <= 0.995\ngini = 0.571\nsamples = 26\nvalue = [0, 4, 7, 15, 0, 0, 0]\nclass = 8", fillcolor="#acf4f3"] ;
116 -> 120 ;
121 [label="gini = 0.0\nsamples = 10\nvalue = [0, 0, 0, 10, 0, 0, 0]\nclass = 8", fillcolor="#39e5e2"] ;
120 -> 121 ;
122 [label="residual sugar <= 5.553\ngini = 0.648\nsamples = 16\nvalue = [0, 4, 7, 5, 0, 0, 0]\nclass = 7", fillcolor="#dbfadf"] ;
120 -> 122 ;
123 [label="citric acid <= 0.279\ngini = 0.5\nsamples = 8\nvalue = [0, 4, 0, 4, 0, 0, 0]\nclass = 5", fillcolor="#ffffff"] ;
122 -> 123 ;
124 [label="volatile acidity <= 0.18\ngini = 0.32\nsamples = 5\nvalue = [0, 4, 0, 1, 0, 0, 0]\nclass = 5", fillcolor="#c9ec6a"] ;
123 -> 124 ;
125 [label="gini = 0.0\nsamples = 1\nvalue = [0, 0, 0, 1, 0, 0, 0]\nclass = 8", fillcolor="#39e5e2"] ;
124 -> 125 ;
126 [label="gini = 0.0\nsamples = 4\nvalue = [0, 4, 0, 0, 0, 0, 0]\nclass = 5", fillcolor="#b7e539"] ;
124 -> 126 ;
127 [label="gini = 0.0\nsamples = 3\nvalue = [0, 0, 0, 3, 0, 0, 0]\nclass = 8", fillcolor="#39e5e2"] ;
123 -> 127 ;
128 [label="fixed acidity <= 7.629\ngini = 0.219\nsamples = 8\nvalue = [0, 0, 7, 1, 0, 0, 0]\nclass = 7", fillcolor="#55e966"] ;
122 -> 128 ;
129 [label="gini = 0.0\nsamples = 7\nvalue = [0, 0, 7, 0, 0, 0, 0]\nclass = 7", fillcolor="#39e54d"] ;
128 -> 129 ;
130 [label="gini = 0.0\nsamples = 1\nvalue = [0, 0, 0, 1, 0, 0, 0]\nclass = 8", fillcolor="#39e5e2"] ;
128 -> 130 ;
131 [label="free sulfur dioxide <= 51.676\ngini = 0.564\nsamples = 54\nvalue = [0, 2, 4, 15, 32, 1, 0]\nclass = 4", fillcolor="#a9b5f4"] ;
115 -> 131 ;
132 [label="pH <= 3.353\ngini = 0.649\nsamples = 34\nvalue = [0, 2, 3, 14, 14, 1, 0]\nclass = 8", fillcolor="#ffffff"] ;
131 -> 132 ;
133 [label="density <= 0.993\ngini = 0.601\nsamples = 23\nvalue = [0, 1, 2, 13, 6, 1, 0]\nclass = 8", fillcolor="#adf4f3"] ;
132 -> 133 ;
134 [label="free sulfur dioxide <= 42.251\ngini = 0.56\nsamples = 5\nvalue = [0, 0, 0, 1, 3, 1, 0]\nclass = 4", fillcolor="#9caaf2"] ;
133 -> 134 ;
135 [label="gini = 0.0\nsamples = 3\nvalue = [0, 0, 0, 0, 3, 0, 0]\nclass = 4", fillcolor="#3956e5"] ;
134 -> 135 ;
136 [label="total sulfur dioxide <= 134.374\ngini = 0.5\nsamples = 2\nvalue = [0, 0, 0, 1, 0, 1, 0]\nclass = 8", fillcolor="#ffffff"] ;
134 -> 136 ;
137 [label="gini = 0.0\nsamples = 1\nvalue = [0, 0, 0, 1, 0, 0, 0]\nclass = 8", fillcolor="#39e5e2"] ;
136 -> 137 ;
138 [label="gini = 0.0\nsamples = 1\nvalue = [0, 0, 0, 0, 0, 1, 0]\nclass = 3", fillcolor="#b139e5"] ;
136 -> 138 ;
139 [label="residual sugar <= 8.537\ngini = 0.512\nsamples = 18\nvalue = [0, 1, 2, 12, 3, 0, 0]\nclass = 8", fillcolor="#88efee"] ;
133 -> 139 ;
140 [label="sulphates <= 0.37\ngini = 0.357\nsamples = 14\nvalue = [0, 1, 2, 11, 0, 0, 0]\nclass = 8", fillcolor="#6bece9"] ;
139 -> 140 ;
141 [label="total sulfur dioxide <= 171.5\ngini = 0.444\nsamples = 3\nvalue = [0, 0, 2, 1, 0, 0, 0]\nclass = 7", fillcolor="#9cf2a6"] ;
140 -> 141 ;
142 [label="gini = 0.0\nsamples = 2\nvalue = [0, 0, 2, 0, 0, 0, 0]\nclass = 7", fillcolor="#39e54d"] ;
141 -> 142 ;
143 [label="gini = 0.0\nsamples = 1\nvalue = [0, 0, 0, 1, 0, 0, 0]\nclass = 8", fillcolor="#39e5e2"] ;
141 -> 143 ;
144 [label="fixed acidity <= 7.613\ngini = 0.165\nsamples = 11\nvalue = [0, 1, 0, 10, 0, 0, 0]\nclass = 8", fillcolor="#4de8e5"] ;
140 -> 144 ;
145 [label="gini = 0.0\nsamples = 9\nvalue = [0, 0, 0, 9, 0, 0, 0]\nclass = 8", fillcolor="#39e5e2"] ;
144 -> 145 ;
146 [label="chlorides <= 0.045\ngini = 0.5\nsamples = 2\nvalue = [0, 1, 0, 1, 0, 0, 0]\nclass = 5", fillcolor="#ffffff"] ;
144 -> 146 ;
147 [label="gini = 0.0\nsamples = 1\nvalue = [0, 1, 0, 0, 0, 0, 0]\nclass = 5", fillcolor="#b7e539"] ;
146 -> 147 ;
148 [label="gini = 0.0\nsamples = 1\nvalue = [0, 0, 0, 1, 0, 0, 0]\nclass = 8", fillcolor="#39e5e2"] ;
146 -> 148 ;
149 [label="fixed acidity <= 6.635\ngini = 0.375\nsamples = 4\nvalue = [0, 0, 0, 1, 3, 0, 0]\nclass = 4", fillcolor="#7b8eee"] ;
139 -> 149 ;
150 [label="gini = 0.0\nsamples = 1\nvalue = [0, 0, 0, 1, 0, 0, 0]\nclass = 8", fillcolor="#39e5e2"] ;
149 -> 150 ;
151 [label="gini = 0.0\nsamples = 3\nvalue = [0, 0, 0, 0, 3, 0, 0]\nclass = 4", fillcolor="#3956e5"] ;
149 -> 151 ;
152 [label="fixed acidity <= 7.446\ngini = 0.446\nsamples = 11\nvalue = [0, 1, 1, 1, 8, 0, 0]\nclass = 4", fillcolor="#7489ed"] ;
132 -> 152 ;
153 [label="fixed acidity <= 6.75\ngini = 0.34\nsamples = 10\nvalue = [0, 0, 1, 1, 8, 0, 0]\nclass = 4", fillcolor="#657ceb"] ;
152 -> 153 ;
154 [label="sulphates <= 0.44\ngini = 0.667\nsamples = 3\nvalue = [0, 0, 1, 1, 1, 0, 0]\nclass = 7", fillcolor="#ffffff"] ;
153 -> 154 ;
155 [label="gini = 0.0\nsamples = 1\nvalue = [0, 0, 1, 0, 0, 0, 0]\nclass = 7", fillcolor="#39e54d"] ;
154 -> 155 ;
156 [label="pH <= 3.411\ngini = 0.5\nsamples = 2\nvalue = [0, 0, 0, 1, 1, 0, 0]\nclass = 8", fillcolor="#ffffff"] ;
154 -> 156 ;
157 [label="gini = 0.0\nsamples = 1\nvalue = [0, 0, 0, 1, 0, 0, 0]\nclass = 8", fillcolor="#39e5e2"] ;
156 -> 157 ;
158 [label="gini = 0.0\nsamples = 1\nvalue = [0, 0, 0, 0, 1, 0, 0]\nclass = 4", fillcolor="#3956e5"] ;
156 -> 158 ;
159 [label="gini = 0.0\nsamples = 7\nvalue = [0, 0, 0, 0, 7, 0, 0]\nclass = 4", fillcolor="#3956e5"] ;
153 -> 159 ;
160 [label="gini = 0.0\nsamples = 1\nvalue = [0, 1, 0, 0, 0, 0, 0]\nclass = 5", fillcolor="#b7e539"] ;
152 -> 160 ;
161 [label="residual sugar <= 8.765\ngini = 0.185\nsamples = 20\nvalue = [0, 0, 1, 1, 18, 0, 0]\nclass = 4", fillcolor="#4e68e8"] ;
131 -> 161 ;
162 [label="chlorides <= 0.044\ngini = 0.1\nsamples = 19\nvalue = [0, 0, 0, 1, 18, 0, 0]\nclass = 4", fillcolor="#445fe6"] ;
161 -> 162 ;
163 [label="free sulfur dioxide <= 55.044\ngini = 0.5\nsamples = 2\nvalue = [0, 0, 0, 1, 1, 0, 0]\nclass = 8", fillcolor="#ffffff"] ;
162 -> 163 ;
164 [label="gini = 0.0\nsamples = 1\nvalue = [0, 0, 0, 0, 1, 0, 0]\nclass = 4", fillcolor="#3956e5"] ;
163 -> 164 ;
165 [label="gini = 0.0\nsamples = 1\nvalue = [0, 0, 0, 1, 0, 0, 0]\nclass = 8", fillcolor="#39e5e2"] ;
163 -> 165 ;
166 [label="gini = 0.0\nsamples = 17\nvalue = [0, 0, 0, 0, 17, 0, 0]\nclass = 4", fillcolor="#3956e5"] ;
162 -> 166 ;
167 [label="gini = 0.0\nsamples = 1\nvalue = [0, 0, 1, 0, 0, 0, 0]\nclass = 7", fillcolor="#39e54d"] ;
161 -> 167 ;
168 [label="sulphates <= 0.708\ngini = 0.598\nsamples = 131\nvalue = [0, 13, 72, 39, 3, 4, 0]\nclass = 7", fillcolor="#b8f6bf"] ;
30 -> 168 ;
169 [label="pH <= 3.315\ngini = 0.572\nsamples = 126\nvalue = [0, 8, 72, 39, 3, 4, 0]\nclass = 7", fillcolor="#b4f5bb"] ;
168 -> 169 ;
170 [label="chlorides <= 0.05\ngini = 0.497\nsamples = 110\nvalue = [0, 5, 70, 34, 1, 0, 0]\nclass = 7", fillcolor="#a1f3ab"] ;
169 -> 170 ;
171 [label="sulphates <= 0.545\ngini = 0.537\nsamples = 66\nvalue = [0, 3, 35, 28, 0, 0, 0]\nclass = 7", fillcolor="#dbfade"] ;
170 -> 171 ;
172 [label="total sulfur dioxide <= 143.323\ngini = 0.493\nsamples = 53\nvalue = [0, 1, 32, 20, 0, 0, 0]\nclass = 7", fillcolor="#b7f6be"] ;
171 -> 172 ;
173 [label="chlorides <= 0.044\ngini = 0.469\nsamples = 16\nvalue = [0, 0, 6, 10, 0, 0, 0]\nclass = 8", fillcolor="#b0f5f3"] ;
172 -> 173 ;
174 [label="free sulfur dioxide <= 34.5\ngini = 0.219\nsamples = 8\nvalue = [0, 0, 1, 7, 0, 0, 0]\nclass = 8", fillcolor="#55e9e6"] ;
173 -> 174 ;
175 [label="gini = 0.0\nsamples = 7\nvalue = [0, 0, 0, 7, 0, 0, 0]\nclass = 8", fillcolor="#39e5e2"] ;
174 -> 175 ;
176 [label="gini = 0.0\nsamples = 1\nvalue = [0, 0, 1, 0, 0, 0, 0]\nclass = 7", fillcolor="#39e54d"] ;
174 -> 176 ;
177 [label="free sulfur dioxide <= 28.481\ngini = 0.469\nsamples = 8\nvalue = [0, 0, 5, 3, 0, 0, 0]\nclass = 7", fillcolor="#b0f5b8"] ;
173 -> 177 ;
178 [label="fixed acidity <= 7.7\ngini = 0.278\nsamples = 6\nvalue = [0, 0, 5, 1, 0, 0, 0]\nclass = 7", fillcolor="#61ea71"] ;
177 -> 178 ;
179 [label="gini = 0.0\nsamples = 5\nvalue = [0, 0, 5, 0, 0, 0, 0]\nclass = 7", fillcolor="#39e54d"] ;
178 -> 179 ;
180 [label="gini = 0.0\nsamples = 1\nvalue = [0, 0, 0, 1, 0, 0, 0]\nclass = 8", fillcolor="#39e5e2"] ;
178 -> 180 ;
181 [label="gini = 0.0\nsamples = 2\nvalue = [0, 0, 0, 2, 0, 0, 0]\nclass = 8", fillcolor="#39e5e2"] ;
177 -> 181 ;
182 [label="volatile acidity <= 0.259\ngini = 0.432\nsamples = 37\nvalue = [0, 1, 26, 10, 0, 0, 0]\nclass = 7", fillcolor="#8af096"] ;
172 -> 182 ;
183 [label="citric acid <= 0.645\ngini = 0.227\nsamples = 23\nvalue = [0, 0, 20, 3, 0, 0, 0]\nclass = 7", fillcolor="#57e968"] ;
182 -> 183 ;
184 [label="residual sugar <= 7.95\ngini = 0.165\nsamples = 22\nvalue = [0, 0, 20, 2, 0, 0, 0]\nclass = 7", fillcolor="#4de85f"] ;
183 -> 184 ;
185 [label="gini = 0.0\nsamples = 14\nvalue = [0, 0, 14, 0, 0, 0, 0]\nclass = 7", fillcolor="#39e54d"] ;
184 -> 185 ;
186 [label="pH <= 3.166\ngini = 0.375\nsamples = 8\nvalue = [0, 0, 6, 2, 0, 0, 0]\nclass = 7", fillcolor="#7bee88"] ;
184 -> 186 ;
187 [label="gini = 0.0\nsamples = 2\nvalue = [0, 0, 0, 2, 0, 0, 0]\nclass = 8", fillcolor="#39e5e2"] ;
186 -> 187 ;
188 [label="gini = 0.0\nsamples = 6\nvalue = [0, 0, 6, 0, 0, 0, 0]\nclass = 7", fillcolor="#39e54d"] ;
186 -> 188 ;
189 [label="gini = 0.0\nsamples = 1\nvalue = [0, 0, 0, 1, 0, 0, 0]\nclass = 8", fillcolor="#39e5e2"] ;
183 -> 189 ;
190 [label="density <= 0.996\ngini = 0.561\nsamples = 14\nvalue = [0, 1, 6, 7, 0, 0, 0]\nclass = 8", fillcolor="#e6fcfb"] ;
182 -> 190 ;
191 [label="sulphates <= 0.451\ngini = 0.278\nsamples = 6\nvalue = [0, 1, 0, 5, 0, 0, 0]\nclass = 8", fillcolor="#61eae8"] ;
190 -> 191 ;
192 [label="gini = 0.0\nsamples = 1\nvalue = [0, 1, 0, 0, 0, 0, 0]\nclass = 5", fillcolor="#b7e539"] ;
191 -> 192 ;
193 [label="gini = 0.0\nsamples = 5\nvalue = [0, 0, 0, 5, 0, 0, 0]\nclass = 8", fillcolor="#39e5e2"] ;
191 -> 193 ;
194 [label="residual sugar <= 6.55\ngini = 0.375\nsamples = 8\nvalue = [0, 0, 6, 2, 0, 0, 0]\nclass = 7", fillcolor="#7bee88"] ;
190 -> 194 ;
195 [label="gini = 0.0\nsamples = 1\nvalue = [0, 0, 0, 1, 0, 0, 0]\nclass = 8", fillcolor="#39e5e2"] ;
194 -> 195 ;
196 [label="alcohol <= 8.95\ngini = 0.245\nsamples = 7\nvalue = [0, 0, 6, 1, 0, 0, 0]\nclass = 7", fillcolor="#5ae96b"] ;
194 -> 196 ;
197 [label="gini = 0.0\nsamples = 1\nvalue = [0, 0, 0, 1, 0, 0, 0]\nclass = 8", fillcolor="#39e5e2"] ;
196 -> 197 ;
198 [label="gini = 0.0\nsamples = 6\nvalue = [0, 0, 6, 0, 0, 0, 0]\nclass = 7", fillcolor="#39e54d"] ;
196 -> 198 ;
199 [label="total sulfur dioxide <= 153.5\ngini = 0.544\nsamples = 13\nvalue = [0, 2, 3, 8, 0, 0, 0]\nclass = 8", fillcolor="#9cf2f0"] ;
171 -> 199 ;
200 [label="citric acid <= 0.425\ngini = 0.611\nsamples = 6\nvalue = [0, 2, 3, 1, 0, 0, 0]\nclass = 7", fillcolor="#cef8d2"] ;
199 -> 200 ;
201 [label="chlorides <= 0.038\ngini = 0.444\nsamples = 3\nvalue = [0, 2, 0, 1, 0, 0, 0]\nclass = 5", fillcolor="#dbf29c"] ;
200 -> 201 ;
202 [label="gini = 0.0\nsamples = 1\nvalue = [0, 0, 0, 1, 0, 0, 0]\nclass = 8", fillcolor="#39e5e2"] ;
201 -> 202 ;
203 [label="gini = 0.0\nsamples = 2\nvalue = [0, 2, 0, 0, 0, 0, 0]\nclass = 5", fillcolor="#b7e539"] ;
201 -> 203 ;
204 [label="gini = 0.0\nsamples = 3\nvalue = [0, 0, 3, 0, 0, 0, 0]\nclass = 7", fillcolor="#39e54d"] ;
200 -> 204 ;
205 [label="gini = 0.0\nsamples = 7\nvalue = [0, 0, 0, 7, 0, 0, 0]\nclass = 8", fillcolor="#39e5e2"] ;
199 -> 205 ;
206 [label="chlorides <= 0.154\ngini = 0.346\nsamples = 44\nvalue = [0, 2, 35, 6, 1, 0, 0]\nclass = 7", fillcolor="#68eb77"] ;
170 -> 206 ;
207 [label="pH <= 2.995\ngini = 0.263\nsamples = 41\nvalue = [0, 2, 35, 3, 1, 0, 0]\nclass = 7", fillcolor="#58e969"] ;
206 -> 207 ;
208 [label="free sulfur dioxide <= 18.0\ngini = 0.444\nsamples = 3\nvalue = [0, 1, 0, 2, 0, 0, 0]\nclass = 8", fillcolor="#9cf2f0"] ;
207 -> 208 ;
209 [label="gini = 0.0\nsamples = 1\nvalue = [0, 1, 0, 0, 0, 0, 0]\nclass = 5", fillcolor="#b7e539"] ;
208 -> 209 ;
210 [label="gini = 0.0\nsamples = 2\nvalue = [0, 0, 0, 2, 0, 0, 0]\nclass = 8", fillcolor="#39e5e2"] ;
208 -> 210 ;
211 [label="free sulfur dioxide <= 11.688\ngini = 0.15\nsamples = 38\nvalue = [0, 1, 35, 1, 1, 0, 0]\nclass = 7", fillcolor="#49e75b"] ;
207 -> 211 ;
212 [label="gini = 0.0\nsamples = 1\nvalue = [0, 1, 0, 0, 0, 0, 0]\nclass = 5", fillcolor="#b7e539"] ;
211 -> 212 ;
213 [label="free sulfur dioxide <= 51.5\ngini = 0.104\nsamples = 37\nvalue = [0, 0, 35, 1, 1, 0, 0]\nclass = 7", fillcolor="#44e657"] ;
211 -> 213 ;
214 [label="fixed acidity <= 5.801\ngini = 0.056\nsamples = 35\nvalue = [0, 0, 34, 1, 0, 0, 0]\nclass = 7", fillcolor="#3fe652"] ;
213 -> 214 ;
215 [label="sulphates <= 0.49\ngini = 0.444\nsamples = 3\nvalue = [0, 0, 2, 1, 0, 0, 0]\nclass = 7", fillcolor="#9cf2a6"] ;
214 -> 215 ;
216 [label="gini = 0.0\nsamples = 2\nvalue = [0, 0, 2, 0, 0, 0, 0]\nclass = 7", fillcolor="#39e54d"] ;
215 -> 216 ;
217 [label="gini = 0.0\nsamples = 1\nvalue = [0, 0, 0, 1, 0, 0, 0]\nclass = 8", fillcolor="#39e5e2"] ;
215 -> 217 ;
218 [label="gini = 0.0\nsamples = 32\nvalue = [0, 0, 32, 0, 0, 0, 0]\nclass = 7", fillcolor="#39e54d"] ;
214 -> 218 ;
219 [label="free sulfur dioxide <= 53.5\ngini = 0.5\nsamples = 2\nvalue = [0, 0, 1, 0, 1, 0, 0]\nclass = 7", fillcolor="#ffffff"] ;
213 -> 219 ;
220 [label="gini = 0.0\nsamples = 1\nvalue = [0, 0, 0, 0, 1, 0, 0]\nclass = 4", fillcolor="#3956e5"] ;
219 -> 220 ;
221 [label="gini = 0.0\nsamples = 1\nvalue = [0, 0, 1, 0, 0, 0, 0]\nclass = 7", fillcolor="#39e54d"] ;
219 -> 221 ;
222 [label="gini = 0.0\nsamples = 3\nvalue = [0, 0, 0, 3, 0, 0, 0]\nclass = 8", fillcolor="#39e5e2"] ;
206 -> 222 ;
223 [label="pH <= 3.33\ngini = 0.773\nsamples = 16\nvalue = [0, 3, 2, 5, 2, 4, 0]\nclass = 8", fillcolor="#eefdfd"] ;
169 -> 223 ;
224 [label="gini = 0.0\nsamples = 4\nvalue = [0, 0, 0, 0, 0, 4, 0]\nclass = 3", fillcolor="#b139e5"] ;
223 -> 224 ;
225 [label="residual sugar <= 7.35\ngini = 0.708\nsamples = 12\nvalue = [0, 3, 2, 5, 2, 0, 0]\nclass = 8", fillcolor="#d3f9f9"] ;
223 -> 225 ;
226 [label="fixed acidity <= 5.746\ngini = 0.62\nsamples = 10\nvalue = [0, 3, 2, 5, 0, 0, 0]\nclass = 8", fillcolor="#c6f8f7"] ;
225 -> 226 ;
227 [label="gini = 0.0\nsamples = 2\nvalue = [0, 0, 2, 0, 0, 0, 0]\nclass = 7", fillcolor="#39e54d"] ;
226 -> 227 ;
228 [label="chlorides <= 0.056\ngini = 0.469\nsamples = 8\nvalue = [0, 3, 0, 5, 0, 0, 0]\nclass = 8", fillcolor="#b0f5f3"] ;
226 -> 228 ;
229 [label="density <= 0.996\ngini = 0.278\nsamples = 6\nvalue = [0, 1, 0, 5, 0, 0, 0]\nclass = 8", fillcolor="#61eae8"] ;
228 -> 229 ;
230 [label="gini = 0.0\nsamples = 5\nvalue = [0, 0, 0, 5, 0, 0, 0]\nclass = 8", fillcolor="#39e5e2"] ;
229 -> 230 ;
231 [label="gini = 0.0\nsamples = 1\nvalue = [0, 1, 0, 0, 0, 0, 0]\nclass = 5", fillcolor="#b7e539"] ;
229 -> 231 ;
232 [label="gini = 0.0\nsamples = 2\nvalue = [0, 2, 0, 0, 0, 0, 0]\nclass = 5", fillcolor="#b7e539"] ;
228 -> 232 ;
233 [label="gini = 0.0\nsamples = 2\nvalue = [0, 0, 0, 0, 2, 0, 0]\nclass = 4", fillcolor="#3956e5"] ;
225 -> 233 ;
234 [label="gini = 0.0\nsamples = 5\nvalue = [0, 5, 0, 0, 0, 0, 0]\nclass = 5", fillcolor="#b7e539"] ;
168 -> 234 ;
235 [label="sulphates <= 0.523\ngini = 0.737\nsamples = 706\nvalue = [0, 33, 112, 242, 222, 97, 0]\nclass = 8", fillcolor="#f7fefe"] ;
29 -> 235 ;
236 [label="alcohol <= 10.501\ngini = 0.745\nsamples = 397\nvalue = [0, 5, 88, 129, 102, 73, 0]\nclass = 8", fillcolor="#edfdfc"] ;
235 -> 236 ;
237 [label="free sulfur dioxide <= 32.949\ngini = 0.708\nsamples = 158\nvalue = [0, 4, 54, 56, 33, 11, 0]\nclass = 8", fillcolor="#fbfefe"] ;
236 -> 237 ;
238 [label="free sulfur dioxide <= 27.5\ngini = 0.728\nsamples = 71\nvalue = [0, 3, 26, 14, 21, 7, 0]\nclass = 7", fillcolor="#ebfced"] ;
237 -> 238 ;
239 [label="sulphates <= 0.511\ngini = 0.639\nsamples = 45\nvalue = [0, 3, 24, 9, 8, 1, 0]\nclass = 7", fillcolor="#acf4b5"] ;
238 -> 239 ;
240 [label="sulphates <= 0.464\ngini = 0.591\nsamples = 42\nvalue = [0, 0, 24, 9, 8, 1, 0]\nclass = 7", fillcolor="#a5f3ae"] ;
239 -> 240 ;
241 [label="pH <= 3.383\ngini = 0.473\nsamples = 30\nvalue = [0, 0, 21, 4, 4, 1, 0]\nclass = 7", fillcolor="#7eee8b"] ;
240 -> 241 ;
242 [label="density <= 0.992\ngini = 0.376\nsamples = 27\nvalue = [0, 0, 21, 2, 3, 1, 0]\nclass = 7", fillcolor="#6aec79"] ;
241 -> 242 ;
243 [label="chlorides <= 0.043\ngini = 0.667\nsamples = 6\nvalue = [0, 0, 2, 2, 2, 0, 0]\nclass = 7", fillcolor="#ffffff"] ;
242 -> 243 ;
244 [label="sulphates <= 0.375\ngini = 0.5\nsamples = 4\nvalue = [0, 0, 0, 2, 2, 0, 0]\nclass = 8", fillcolor="#ffffff"] ;
243 -> 244 ;
245 [label="gini = 0.0\nsamples = 2\nvalue = [0, 0, 0, 2, 0, 0, 0]\nclass = 8", fillcolor="#39e5e2"] ;
244 -> 245 ;
246 [label="gini = 0.0\nsamples = 2\nvalue = [0, 0, 0, 0, 2, 0, 0]\nclass = 4", fillcolor="#3956e5"] ;
244 -> 246 ;
247 [label="gini = 0.0\nsamples = 2\nvalue = [0, 0, 2, 0, 0, 0, 0]\nclass = 7", fillcolor="#39e54d"] ;
243 -> 247 ;
248 [label="sulphates <= 0.46\ngini = 0.177\nsamples = 21\nvalue = [0, 0, 19, 0, 1, 1, 0]\nclass = 7", fillcolor="#4de85f"] ;
242 -> 248 ;
249 [label="pH <= 3.07\ngini = 0.095\nsamples = 20\nvalue = [0, 0, 19, 0, 1, 0, 0]\nclass = 7", fillcolor="#43e656"] ;
248 -> 249 ;
250 [label="citric acid <= 0.285\ngini = 0.5\nsamples = 2\nvalue = [0, 0, 1, 0, 1, 0, 0]\nclass = 7", fillcolor="#ffffff"] ;
249 -> 250 ;
251 [label="gini = 0.0\nsamples = 1\nvalue = [0, 0, 0, 0, 1, 0, 0]\nclass = 4", fillcolor="#3956e5"] ;
250 -> 251 ;
252 [label="gini = 0.0\nsamples = 1\nvalue = [0, 0, 1, 0, 0, 0, 0]\nclass = 7", fillcolor="#39e54d"] ;
250 -> 252 ;
253 [label="gini = 0.0\nsamples = 18\nvalue = [0, 0, 18, 0, 0, 0, 0]\nclass = 7", fillcolor="#39e54d"] ;
249 -> 253 ;
254 [label="gini = 0.0\nsamples = 1\nvalue = [0, 0, 0, 0, 0, 1, 0]\nclass = 3", fillcolor="#b139e5"] ;
248 -> 254 ;
255 [label="residual sugar <= 7.558\ngini = 0.444\nsamples = 3\nvalue = [0, 0, 0, 2, 1, 0, 0]\nclass = 8", fillcolor="#9cf2f0"] ;
241 -> 255 ;
256 [label="gini = 0.0\nsamples = 2\nvalue = [0, 0, 0, 2, 0, 0, 0]\nclass = 8", fillcolor="#39e5e2"] ;
255 -> 256 ;
257 [label="gini = 0.0\nsamples = 1\nvalue = [0, 0, 0, 0, 1, 0, 0]\nclass = 4", fillcolor="#3956e5"] ;
255 -> 257 ;
258 [label="total sulfur dioxide <= 142.5\ngini = 0.653\nsamples = 12\nvalue = [0, 0, 3, 5, 4, 0, 0]\nclass = 8", fillcolor="#e6fcfb"] ;
240 -> 258 ;
259 [label="pH <= 3.28\ngini = 0.494\nsamples = 9\nvalue = [0, 0, 0, 5, 4, 0, 0]\nclass = 8", fillcolor="#d7faf9"] ;
258 -> 259 ;
260 [label="gini = 0.0\nsamples = 4\nvalue = [0, 0, 0, 4, 0, 0, 0]\nclass = 8", fillcolor="#39e5e2"] ;
259 -> 260 ;
261 [label="alcohol <= 10.336\ngini = 0.32\nsamples = 5\nvalue = [0, 0, 0, 1, 4, 0, 0]\nclass = 4", fillcolor="#6a80ec"] ;
259 -> 261 ;
262 [label="gini = 0.0\nsamples = 1\nvalue = [0, 0, 0, 1, 0, 0, 0]\nclass = 8", fillcolor="#39e5e2"] ;
261 -> 262 ;
263 [label="gini = 0.0\nsamples = 4\nvalue = [0, 0, 0, 0, 4, 0, 0]\nclass = 4", fillcolor="#3956e5"] ;
261 -> 263 ;
264 [label="gini = 0.0\nsamples = 3\nvalue = [0, 0, 3, 0, 0, 0, 0]\nclass = 7", fillcolor="#39e54d"] ;
258 -> 264 ;
265 [label="gini = 0.0\nsamples = 3\nvalue = [0, 3, 0, 0, 0, 0, 0]\nclass = 5", fillcolor="#b7e539"] ;
239 -> 265 ;
266 [label="free sulfur dioxide <= 32.031\ngini = 0.654\nsamples = 26\nvalue = [0, 0, 2, 5, 13, 6, 0]\nclass = 4", fillcolor="#bac4f6"] ;
238 -> 266 ;
267 [label="residual sugar <= 1.546\ngini = 0.549\nsamples = 21\nvalue = [0, 0, 2, 5, 13, 1, 0]\nclass = 4", fillcolor="#9caaf2"] ;
266 -> 267 ;
268 [label="alcohol <= 10.351\ngini = 0.5\nsamples = 4\nvalue = [0, 0, 2, 2, 0, 0, 0]\nclass = 7", fillcolor="#ffffff"] ;
267 -> 268 ;
269 [label="gini = 0.0\nsamples = 2\nvalue = [0, 0, 0, 2, 0, 0, 0]\nclass = 8", fillcolor="#39e5e2"] ;
268 -> 269 ;
270 [label="gini = 0.0\nsamples = 2\nvalue = [0, 0, 2, 0, 0, 0, 0]\nclass = 7", fillcolor="#39e54d"] ;
268 -> 270 ;
271 [label="residual sugar <= 5.35\ngini = 0.381\nsamples = 17\nvalue = [0, 0, 0, 3, 13, 1, 0]\nclass = 4", fillcolor="#7286ec"] ;
267 -> 271 ;
272 [label="gini = 0.0\nsamples = 10\nvalue = [0, 0, 0, 0, 10, 0, 0]\nclass = 4", fillcolor="#3956e5"] ;
271 -> 272 ;
273 [label="pH <= 3.117\ngini = 0.612\nsamples = 7\nvalue = [0, 0, 0, 3, 3, 1, 0]\nclass = 8", fillcolor="#ffffff"] ;
271 -> 273 ;
274 [label="gini = 0.0\nsamples = 3\nvalue = [0, 0, 0, 0, 3, 0, 0]\nclass = 4", fillcolor="#3956e5"] ;
273 -> 274 ;
275 [label="fixed acidity <= 7.0\ngini = 0.375\nsamples = 4\nvalue = [0, 0, 0, 3, 0, 1, 0]\nclass = 8", fillcolor="#7beeec"] ;
273 -> 275 ;
276 [label="gini = 0.0\nsamples = 3\nvalue = [0, 0, 0, 3, 0, 0, 0]\nclass = 8", fillcolor="#39e5e2"] ;
275 -> 276 ;
277 [label="gini = 0.0\nsamples = 1\nvalue = [0, 0, 0, 0, 0, 1, 0]\nclass = 3", fillcolor="#b139e5"] ;
275 -> 277 ;
278 [label="gini = 0.0\nsamples = 5\nvalue = [0, 0, 0, 0, 0, 5, 0]\nclass = 3", fillcolor="#b139e5"] ;
266 -> 278 ;
279 [label="residual sugar <= 8.841\ngini = 0.642\nsamples = 87\nvalue = [0, 1, 28, 42, 12, 4, 0]\nclass = 8", fillcolor="#d0f9f8"] ;
237 -> 279 ;
280 [label="density <= 0.992\ngini = 0.657\nsamples = 70\nvalue = [0, 1, 27, 29, 10, 3, 0]\nclass = 8", fillcolor="#f6fefe"] ;
279 -> 280 ;
281 [label="gini = 0.0\nsamples = 6\nvalue = [0, 0, 0, 6, 0, 0, 0]\nclass = 8", fillcolor="#39e5e2"] ;
280 -> 281 ;
282 [label="pH <= 3.265\ngini = 0.666\nsamples = 64\nvalue = [0, 1, 27, 23, 10, 3, 0]\nclass = 7", fillcolor="#ecfcee"] ;
280 -> 282 ;
283 [label="volatile acidity <= 0.161\ngini = 0.56\nsamples = 36\nvalue = [0, 0, 21, 11, 2, 2, 0]\nclass = 7", fillcolor="#b0f5b8"] ;
282 -> 283 ;
284 [label="gini = 0.0\nsamples = 2\nvalue = [0, 0, 0, 0, 0, 2, 0]\nclass = 3", fillcolor="#b139e5"] ;
283 -> 284 ;
285 [label="chlorides <= 0.056\ngini = 0.51\nsamples = 34\nvalue = [0, 0, 21, 11, 2, 0, 0]\nclass = 7", fillcolor="#a9f4b2"] ;
283 -> 285 ;
286 [label="fixed acidity <= 6.926\ngini = 0.451\nsamples = 32\nvalue = [0, 0, 21, 11, 0, 0, 0]\nclass = 7", fillcolor="#a1f3aa"] ;
285 -> 286 ;
287 [label="pH <= 3.122\ngini = 0.493\nsamples = 25\nvalue = [0, 0, 14, 11, 0, 0, 0]\nclass = 7", fillcolor="#d5f9d9"] ;
286 -> 287 ;
288 [label="gini = 0.0\nsamples = 4\nvalue = [0, 0, 0, 4, 0, 0, 0]\nclass = 8", fillcolor="#39e5e2"] ;
287 -> 288 ;
289 [label="alcohol <= 10.221\ngini = 0.444\nsamples = 21\nvalue = [0, 0, 14, 7, 0, 0, 0]\nclass = 7", fillcolor="#9cf2a6"] ;
287 -> 289 ;
290 [label="chlorides <= 0.039\ngini = 0.496\nsamples = 11\nvalue = [0, 0, 5, 6, 0, 0, 0]\nclass = 8", fillcolor="#defbfa"] ;
289 -> 290 ;
291 [label="gini = 0.0\nsamples = 2\nvalue = [0, 0, 2, 0, 0, 0, 0]\nclass = 7", fillcolor="#39e54d"] ;
290 -> 291 ;
292 [label="free sulfur dioxide <= 57.5\ngini = 0.444\nsamples = 9\nvalue = [0, 0, 3, 6, 0, 0, 0]\nclass = 8", fillcolor="#9cf2f0"] ;
290 -> 292 ;
293 [label="sulphates <= 0.465\ngini = 0.245\nsamples = 7\nvalue = [0, 0, 1, 6, 0, 0, 0]\nclass = 8", fillcolor="#5ae9e7"] ;
292 -> 293 ;
294 [label="gini = 0.0\nsamples = 5\nvalue = [0, 0, 0, 5, 0, 0, 0]\nclass = 8", fillcolor="#39e5e2"] ;
293 -> 294 ;
295 [label="free sulfur dioxide <= 46.0\ngini = 0.5\nsamples = 2\nvalue = [0, 0, 1, 1, 0, 0, 0]\nclass = 7", fillcolor="#ffffff"] ;
293 -> 295 ;
296 [label="gini = 0.0\nsamples = 1\nvalue = [0, 0, 1, 0, 0, 0, 0]\nclass = 7", fillcolor="#39e54d"] ;
295 -> 296 ;
297 [label="gini = 0.0\nsamples = 1\nvalue = [0, 0, 0, 1, 0, 0, 0]\nclass = 8", fillcolor="#39e5e2"] ;
295 -> 297 ;
298 [label="gini = 0.0\nsamples = 2\nvalue = [0, 0, 2, 0, 0, 0, 0]\nclass = 7", fillcolor="#39e54d"] ;
292 -> 298 ;
299 [label="total sulfur dioxide <= 183.185\ngini = 0.18\nsamples = 10\nvalue = [0, 0, 9, 1, 0, 0, 0]\nclass = 7", fillcolor="#4fe861"] ;
289 -> 299 ;
300 [label="gini = 0.0\nsamples = 9\nvalue = [0, 0, 9, 0, 0, 0, 0]\nclass = 7", fillcolor="#39e54d"] ;
299 -> 300 ;
301 [label="gini = 0.0\nsamples = 1\nvalue = [0, 0, 0, 1, 0, 0, 0]\nclass = 8", fillcolor="#39e5e2"] ;
299 -> 301 ;
302 [label="gini = 0.0\nsamples = 7\nvalue = [0, 0, 7, 0, 0, 0, 0]\nclass = 7", fillcolor="#39e54d"] ;
286 -> 302 ;
303 [label="gini = 0.0\nsamples = 2\nvalue = [0, 0, 0, 0, 2, 0, 0]\nclass = 4", fillcolor="#3956e5"] ;
285 -> 303 ;
304 [label="density <= 0.995\ngini = 0.686\nsamples = 28\nvalue = [0, 1, 6, 12, 8, 1, 0]\nclass = 8", fillcolor="#d7faf9"] ;
282 -> 304 ;
305 [label="sulphates <= 0.361\ngini = 0.61\nsamples = 20\nvalue = [0, 0, 5, 11, 3, 1, 0]\nclass = 8", fillcolor="#b0f5f3"] ;
304 -> 305 ;
306 [label="gini = 0.0\nsamples = 2\nvalue = [0, 0, 0, 0, 2, 0, 0]\nclass = 4", fillcolor="#3956e5"] ;
305 -> 306 ;
307 [label="chlorides <= 0.033\ngini = 0.543\nsamples = 18\nvalue = [0, 0, 5, 11, 1, 1, 0]\nclass = 8", fillcolor="#a4f3f2"] ;
305 -> 307 ;
308 [label="fixed acidity <= 5.6\ngini = 0.375\nsamples = 4\nvalue = [0, 0, 3, 1, 0, 0, 0]\nclass = 7", fillcolor="#7bee88"] ;
307 -> 308 ;
309 [label="gini = 0.0\nsamples = 1\nvalue = [0, 0, 0, 1, 0, 0, 0]\nclass = 8", fillcolor="#39e5e2"] ;
308 -> 309 ;
310 [label="gini = 0.0\nsamples = 3\nvalue = [0, 0, 3, 0, 0, 0, 0]\nclass = 7", fillcolor="#39e54d"] ;
308 -> 310 ;
311 [label="fixed acidity <= 5.35\ngini = 0.459\nsamples = 14\nvalue = [0, 0, 2, 10, 1, 1, 0]\nclass = 8", fillcolor="#7beeec"] ;
307 -> 311 ;
312 [label="gini = 0.0\nsamples = 1\nvalue = [0, 0, 1, 0, 0, 0, 0]\nclass = 7", fillcolor="#39e54d"] ;
311 -> 312 ;
313 [label="total sulfur dioxide <= 122.5\ngini = 0.391\nsamples = 13\nvalue = [0, 0, 1, 10, 1, 1, 0]\nclass = 8", fillcolor="#6bece9"] ;
311 -> 313 ;
314 [label="pH <= 3.325\ngini = 0.667\nsamples = 3\nvalue = [0, 0, 0, 1, 1, 1, 0]\nclass = 8", fillcolor="#ffffff"] ;
313 -> 314 ;
315 [label="gini = 0.0\nsamples = 1\nvalue = [0, 0, 0, 1, 0, 0, 0]\nclass = 8", fillcolor="#39e5e2"] ;
314 -> 315 ;
316 [label="total sulfur dioxide <= 117.5\ngini = 0.5\nsamples = 2\nvalue = [0, 0, 0, 0, 1, 1, 0]\nclass = 4", fillcolor="#ffffff"] ;
314 -> 316 ;
317 [label="gini = 0.0\nsamples = 1\nvalue = [0, 0, 0, 0, 1, 0, 0]\nclass = 4", fillcolor="#3956e5"] ;
316 -> 317 ;
318 [label="gini = 0.0\nsamples = 1\nvalue = [0, 0, 0, 0, 0, 1, 0]\nclass = 3", fillcolor="#b139e5"] ;
316 -> 318 ;
319 [label="alcohol <= 10.45\ngini = 0.18\nsamples = 10\nvalue = [0, 0, 1, 9, 0, 0, 0]\nclass = 8", fillcolor="#4fe8e5"] ;
313 -> 319 ;
320 [label="gini = 0.0\nsamples = 7\nvalue = [0, 0, 0, 7, 0, 0, 0]\nclass = 8", fillcolor="#39e5e2"] ;
319 -> 320 ;
321 [label="pH <= 3.435\ngini = 0.444\nsamples = 3\nvalue = [0, 0, 1, 2, 0, 0, 0]\nclass = 8", fillcolor="#9cf2f0"] ;
319 -> 321 ;
322 [label="gini = 0.0\nsamples = 1\nvalue = [0, 0, 1, 0, 0, 0, 0]\nclass = 7", fillcolor="#39e54d"] ;
321 -> 322 ;
323 [label="gini = 0.0\nsamples = 2\nvalue = [0, 0, 0, 2, 0, 0, 0]\nclass = 8", fillcolor="#39e5e2"] ;
321 -> 323 ;
324 [label="density <= 0.996\ngini = 0.562\nsamples = 8\nvalue = [0, 1, 1, 1, 5, 0, 0]\nclass = 4", fillcolor="#8e9ef0"] ;
304 -> 324 ;
325 [label="alcohol <= 10.186\ngini = 0.278\nsamples = 6\nvalue = [0, 1, 0, 0, 5, 0, 0]\nclass = 4", fillcolor="#6178ea"] ;
324 -> 325 ;
326 [label="gini = 0.0\nsamples = 1\nvalue = [0, 1, 0, 0, 0, 0, 0]\nclass = 5", fillcolor="#b7e539"] ;
325 -> 326 ;
327 [label="gini = 0.0\nsamples = 5\nvalue = [0, 0, 0, 0, 5, 0, 0]\nclass = 4", fillcolor="#3956e5"] ;
325 -> 327 ;
328 [label="citric acid <= 0.425\ngini = 0.5\nsamples = 2\nvalue = [0, 0, 1, 1, 0, 0, 0]\nclass = 7", fillcolor="#ffffff"] ;
324 -> 328 ;
329 [label="gini = 0.0\nsamples = 1\nvalue = [0, 0, 1, 0, 0, 0, 0]\nclass = 7", fillcolor="#39e54d"] ;
328 -> 329 ;
330 [label="gini = 0.0\nsamples = 1\nvalue = [0, 0, 0, 1, 0, 0, 0]\nclass = 8", fillcolor="#39e5e2"] ;
328 -> 330 ;
331 [label="density <= 0.995\ngini = 0.394\nsamples = 17\nvalue = [0, 0, 1, 13, 2, 1, 0]\nclass = 8", fillcolor="#6eecea"] ;
279 -> 331 ;
332 [label="chlorides <= 0.037\ngini = 0.667\nsamples = 3\nvalue = [0, 0, 1, 0, 1, 1, 0]\nclass = 7", fillcolor="#ffffff"] ;
331 -> 332 ;
333 [label="gini = 0.0\nsamples = 1\nvalue = [0, 0, 0, 0, 0, 1, 0]\nclass = 3", fillcolor="#b139e5"] ;
332 -> 333 ;
334 [label="free sulfur dioxide <= 62.637\ngini = 0.5\nsamples = 2\nvalue = [0, 0, 1, 0, 1, 0, 0]\nclass = 7", fillcolor="#ffffff"] ;
332 -> 334 ;
335 [label="gini = 0.0\nsamples = 1\nvalue = [0, 0, 1, 0, 0, 0, 0]\nclass = 7", fillcolor="#39e54d"] ;
334 -> 335 ;
336 [label="gini = 0.0\nsamples = 1\nvalue = [0, 0, 0, 0, 1, 0, 0]\nclass = 4", fillcolor="#3956e5"] ;
334 -> 336 ;
337 [label="total sulfur dioxide <= 124.884\ngini = 0.133\nsamples = 14\nvalue = [0, 0, 0, 13, 1, 0, 0]\nclass = 8", fillcolor="#48e7e4"] ;
331 -> 337 ;
338 [label="gini = 0.0\nsamples = 1\nvalue = [0, 0, 0, 0, 1, 0, 0]\nclass = 4", fillcolor="#3956e5"] ;
337 -> 338 ;
339 [label="gini = 0.0\nsamples = 13\nvalue = [0, 0, 0, 13, 0, 0, 0]\nclass = 8", fillcolor="#39e5e2"] ;
337 -> 339 ;
340 [label="total sulfur dioxide <= 91.0\ngini = 0.736\nsamples = 239\nvalue = [0, 1, 34, 73, 69, 62, 0]\nclass = 8", fillcolor="#fafefe"] ;
236 -> 340 ;
341 [label="volatile acidity <= 0.199\ngini = 0.483\nsamples = 29\nvalue = [0, 0, 5, 3, 20, 1, 0]\nclass = 4", fillcolor="#8395ef"] ;
340 -> 341 ;
342 [label="gini = 0.0\nsamples = 18\nvalue = [0, 0, 0, 0, 18, 0, 0]\nclass = 4", fillcolor="#3956e5"] ;
341 -> 342 ;
343 [label="density <= 0.991\ngini = 0.678\nsamples = 11\nvalue = [0, 0, 5, 3, 2, 1, 0]\nclass = 7", fillcolor="#cef8d2"] ;
341 -> 343 ;
344 [label="gini = 0.0\nsamples = 2\nvalue = [0, 0, 0, 0, 2, 0, 0]\nclass = 4", fillcolor="#3956e5"] ;
343 -> 344 ;
345 [label="density <= 0.992\ngini = 0.568\nsamples = 9\nvalue = [0, 0, 5, 3, 0, 1, 0]\nclass = 7", fillcolor="#bdf6c4"] ;
343 -> 345 ;
346 [label="gini = 0.0\nsamples = 2\nvalue = [0, 0, 0, 2, 0, 0, 0]\nclass = 8", fillcolor="#39e5e2"] ;
345 -> 346 ;
347 [label="total sulfur dioxide <= 81.826\ngini = 0.449\nsamples = 7\nvalue = [0, 0, 5, 1, 0, 1, 0]\nclass = 7", fillcolor="#7bee88"] ;
345 -> 347 ;
348 [label="gini = 0.0\nsamples = 5\nvalue = [0, 0, 5, 0, 0, 0, 0]\nclass = 7", fillcolor="#39e54d"] ;
347 -> 348 ;
349 [label="fixed acidity <= 6.874\ngini = 0.5\nsamples = 2\nvalue = [0, 0, 0, 1, 0, 1, 0]\nclass = 8", fillcolor="#ffffff"] ;
347 -> 349 ;
350 [label="gini = 0.0\nsamples = 1\nvalue = [0, 0, 0, 0, 0, 1, 0]\nclass = 3", fillcolor="#b139e5"] ;
349 -> 350 ;
351 [label="gini = 0.0\nsamples = 1\nvalue = [0, 0, 0, 1, 0, 0, 0]\nclass = 8", fillcolor="#39e5e2"] ;
349 -> 351 ;
352 [label="alcohol <= 10.588\ngini = 0.731\nsamples = 210\nvalue = [0, 1, 29, 70, 49, 61, 0]\nclass = 8", fillcolor="#f3fdfd"] ;
340 -> 352 ;
353 [label="density <= 0.992\ngini = 0.346\nsamples = 18\nvalue = [0, 0, 0, 0, 4, 14, 0]\nclass = 3", fillcolor="#c772ec"] ;
352 -> 353 ;
354 [label="gini = 0.0\nsamples = 2\nvalue = [0, 0, 0, 0, 2, 0, 0]\nclass = 4", fillcolor="#3956e5"] ;
353 -> 354 ;
355 [label="pH <= 3.524\ngini = 0.219\nsamples = 16\nvalue = [0, 0, 0, 0, 2, 14, 0]\nclass = 3", fillcolor="#bc55e9"] ;
353 -> 355 ;
356 [label="total sulfur dioxide <= 165.779\ngini = 0.124\nsamples = 15\nvalue = [0, 0, 0, 0, 1, 14, 0]\nclass = 3", fillcolor="#b747e7"] ;
355 -> 356 ;
357 [label="gini = 0.0\nsamples = 14\nvalue = [0, 0, 0, 0, 0, 14, 0]\nclass = 3", fillcolor="#b139e5"] ;
356 -> 357 ;
358 [label="gini = 0.0\nsamples = 1\nvalue = [0, 0, 0, 0, 1, 0, 0]\nclass = 4", fillcolor="#3956e5"] ;
356 -> 358 ;
359 [label="gini = 0.0\nsamples = 1\nvalue = [0, 0, 0, 0, 1, 0, 0]\nclass = 4", fillcolor="#3956e5"] ;
355 -> 359 ;
360 [label="alcohol <= 10.8\ngini = 0.729\nsamples = 192\nvalue = [0, 1, 29, 70, 45, 47, 0]\nclass = 8", fillcolor="#e0fbfa"] ;
352 -> 360 ;
361 [label="chlorides <= 0.087\ngini = 0.699\nsamples = 101\nvalue = [0, 1, 23, 45, 17, 15, 0]\nclass = 8", fillcolor="#c7f8f7"] ;
360 -> 361 ;
362 [label="volatile acidity <= 0.178\ngini = 0.685\nsamples = 97\nvalue = [0, 1, 23, 45, 17, 11, 0]\nclass = 8", fillcolor="#c4f7f6"] ;
361 -> 362 ;
363 [label="pH <= 3.193\ngini = 0.683\nsamples = 26\nvalue = [0, 0, 5, 8, 11, 2, 0]\nclass = 4", fillcolor="#dee3fb"] ;
362 -> 363 ;
364 [label="total sulfur dioxide <= 136.667\ngini = 0.7\nsamples = 10\nvalue = [0, 0, 4, 3, 1, 2, 0]\nclass = 7", fillcolor="#e3fbe6"] ;
363 -> 364 ;
365 [label="pH <= 3.145\ngini = 0.571\nsamples = 7\nvalue = [0, 0, 4, 0, 1, 2, 0]\nclass = 7", fillcolor="#b0f5b8"] ;
364 -> 365 ;
366 [label="volatile acidity <= 0.15\ngini = 0.444\nsamples = 3\nvalue = [0, 0, 0, 0, 1, 2, 0]\nclass = 3", fillcolor="#d89cf2"] ;
365 -> 366 ;
367 [label="gini = 0.0\nsamples = 1\nvalue = [0, 0, 0, 0, 1, 0, 0]\nclass = 4", fillcolor="#3956e5"] ;
366 -> 367 ;
368 [label="gini = 0.0\nsamples = 2\nvalue = [0, 0, 0, 0, 0, 2, 0]\nclass = 3", fillcolor="#b139e5"] ;
366 -> 368 ;
369 [label="gini = 0.0\nsamples = 4\nvalue = [0, 0, 4, 0, 0, 0, 0]\nclass = 7", fillcolor="#39e54d"] ;
365 -> 369 ;
370 [label="gini = 0.0\nsamples = 3\nvalue = [0, 0, 0, 3, 0, 0, 0]\nclass = 8", fillcolor="#39e5e2"] ;
364 -> 370 ;
371 [label="residual sugar <= 1.983\ngini = 0.508\nsamples = 16\nvalue = [0, 0, 1, 5, 10, 0, 0]\nclass = 4", fillcolor="#a5b2f3"] ;
363 -> 371 ;
372 [label="gini = 0.0\nsamples = 6\nvalue = [0, 0, 0, 0, 6, 0, 0]\nclass = 4", fillcolor="#3956e5"] ;
371 -> 372 ;
373 [label="citric acid <= 0.29\ngini = 0.58\nsamples = 10\nvalue = [0, 0, 1, 5, 4, 0, 0]\nclass = 8", fillcolor="#defbfa"] ;
371 -> 373 ;
374 [label="gini = 0.0\nsamples = 4\nvalue = [0, 0, 0, 0, 4, 0, 0]\nclass = 4", fillcolor="#3956e5"] ;
373 -> 374 ;
375 [label="fixed acidity <= 6.05\ngini = 0.278\nsamples = 6\nvalue = [0, 0, 1, 5, 0, 0, 0]\nclass = 8", fillcolor="#61eae8"] ;
373 -> 375 ;
376 [label="gini = 0.0\nsamples = 1\nvalue = [0, 0, 1, 0, 0, 0, 0]\nclass = 7", fillcolor="#39e54d"] ;
375 -> 376 ;
377 [label="gini = 0.0\nsamples = 5\nvalue = [0, 0, 0, 5, 0, 0, 0]\nclass = 8", fillcolor="#39e5e2"] ;
375 -> 377 ;
378 [label="citric acid <= 0.284\ngini = 0.641\nsamples = 71\nvalue = [0, 1, 18, 37, 6, 9, 0]\nclass = 8", fillcolor="#b8f6f5"] ;
362 -> 378 ;
379 [label="chlorides <= 0.03\ngini = 0.227\nsamples = 16\nvalue = [0, 0, 1, 14, 0, 1, 0]\nclass = 8", fillcolor="#53e8e6"] ;
378 -> 379 ;
380 [label="gini = 0.0\nsamples = 1\nvalue = [0, 0, 0, 0, 0, 1, 0]\nclass = 3", fillcolor="#b139e5"] ;
379 -> 380 ;
381 [label="chlorides <= 0.037\ngini = 0.124\nsamples = 15\nvalue = [0, 0, 1, 14, 0, 0, 0]\nclass = 8", fillcolor="#47e7e4"] ;
379 -> 381 ;
382 [label="density <= 0.993\ngini = 0.5\nsamples = 2\nvalue = [0, 0, 1, 1, 0, 0, 0]\nclass = 7", fillcolor="#ffffff"] ;
381 -> 382 ;
383 [label="gini = 0.0\nsamples = 1\nvalue = [0, 0, 0, 1, 0, 0, 0]\nclass = 8", fillcolor="#39e5e2"] ;
382 -> 383 ;
384 [label="gini = 0.0\nsamples = 1\nvalue = [0, 0, 1, 0, 0, 0, 0]\nclass = 7", fillcolor="#39e54d"] ;
382 -> 384 ;
385 [label="gini = 0.0\nsamples = 13\nvalue = [0, 0, 0, 13, 0, 0, 0]\nclass = 8", fillcolor="#39e5e2"] ;
381 -> 385 ;
386 [label="free sulfur dioxide <= 39.009\ngini = 0.696\nsamples = 55\nvalue = [0, 1, 17, 23, 6, 8, 0]\nclass = 8", fillcolor="#e0fbfa"] ;
378 -> 386 ;
387 [label="alcohol <= 10.605\ngini = 0.579\nsamples = 33\nvalue = [0, 1, 9, 19, 4, 0, 0]\nclass = 8", fillcolor="#acf4f3"] ;
386 -> 387 ;
388 [label="sulphates <= 0.395\ngini = 0.18\nsamples = 10\nvalue = [0, 0, 1, 9, 0, 0, 0]\nclass = 8", fillcolor="#4fe8e5"] ;
387 -> 388 ;
389 [label="volatile acidity <= 0.245\ngini = 0.5\nsamples = 2\nvalue = [0, 0, 1, 1, 0, 0, 0]\nclass = 7", fillcolor="#ffffff"] ;
388 -> 389 ;
390 [label="gini = 0.0\nsamples = 1\nvalue = [0, 0, 1, 0, 0, 0, 0]\nclass = 7", fillcolor="#39e54d"] ;
389 -> 390 ;
391 [label="gini = 0.0\nsamples = 1\nvalue = [0, 0, 0, 1, 0, 0, 0]\nclass = 8", fillcolor="#39e5e2"] ;
389 -> 391 ;
392 [label="gini = 0.0\nsamples = 8\nvalue = [0, 0, 0, 8, 0, 0, 0]\nclass = 8", fillcolor="#39e5e2"] ;
388 -> 392 ;
393 [label="alcohol <= 10.797\ngini = 0.658\nsamples = 23\nvalue = [0, 1, 8, 10, 4, 0, 0]\nclass = 8", fillcolor="#e5fcfb"] ;
387 -> 393 ;
394 [label="citric acid <= 0.33\ngini = 0.653\nsamples = 12\nvalue = [0, 1, 6, 2, 3, 0, 0]\nclass = 7", fillcolor="#bdf6c4"] ;
393 -> 394 ;
395 [label="volatile acidity <= 0.239\ngini = 0.375\nsamples = 4\nvalue = [0, 0, 1, 0, 3, 0, 0]\nclass = 4", fillcolor="#7b8eee"] ;
394 -> 395 ;
396 [label="gini = 0.0\nsamples = 3\nvalue = [0, 0, 0, 0, 3, 0, 0]\nclass = 4", fillcolor="#3956e5"] ;
395 -> 396 ;
397 [label="gini = 0.0\nsamples = 1\nvalue = [0, 0, 1, 0, 0, 0, 0]\nclass = 7", fillcolor="#39e54d"] ;
395 -> 397 ;
398 [label="residual sugar <= 1.3\ngini = 0.531\nsamples = 8\nvalue = [0, 1, 5, 2, 0, 0, 0]\nclass = 7", fillcolor="#9cf2a6"] ;
394 -> 398 ;
399 [label="gini = 0.0\nsamples = 2\nvalue = [0, 0, 0, 2, 0, 0, 0]\nclass = 8", fillcolor="#39e5e2"] ;
398 -> 399 ;
400 [label="sulphates <= 0.385\ngini = 0.278\nsamples = 6\nvalue = [0, 1, 5, 0, 0, 0, 0]\nclass = 7", fillcolor="#61ea71"] ;
398 -> 400 ;
401 [label="gini = 0.0\nsamples = 1\nvalue = [0, 1, 0, 0, 0, 0, 0]\nclass = 5", fillcolor="#b7e539"] ;
400 -> 401 ;
402 [label="gini = 0.0\nsamples = 5\nvalue = [0, 0, 5, 0, 0, 0, 0]\nclass = 7", fillcolor="#39e54d"] ;
400 -> 402 ;
403 [label="pH <= 3.395\ngini = 0.43\nsamples = 11\nvalue = [0, 0, 2, 8, 1, 0, 0]\nclass = 8", fillcolor="#7beeec"] ;
393 -> 403 ;
404 [label="total sulfur dioxide <= 119.0\ngini = 0.32\nsamples = 10\nvalue = [0, 0, 2, 8, 0, 0, 0]\nclass = 8", fillcolor="#6aece9"] ;
403 -> 404 ;
405 [label="gini = 0.0\nsamples = 6\nvalue = [0, 0, 0, 6, 0, 0, 0]\nclass = 8", fillcolor="#39e5e2"] ;
404 -> 405 ;
406 [label="sulphates <= 0.495\ngini = 0.5\nsamples = 4\nvalue = [0, 0, 2, 2, 0, 0, 0]\nclass = 7", fillcolor="#ffffff"] ;
404 -> 406 ;
407 [label="gini = 0.0\nsamples = 2\nvalue = [0, 0, 0, 2, 0, 0, 0]\nclass = 8", fillcolor="#39e5e2"] ;
406 -> 407 ;
408 [label="gini = 0.0\nsamples = 2\nvalue = [0, 0, 2, 0, 0, 0, 0]\nclass = 7", fillcolor="#39e54d"] ;
406 -> 408 ;
409 [label="gini = 0.0\nsamples = 1\nvalue = [0, 0, 0, 0, 1, 0, 0]\nclass = 4", fillcolor="#3956e5"] ;
403 -> 409 ;
410 [label="total sulfur dioxide <= 129.585\ngini = 0.694\nsamples = 22\nvalue = [0, 0, 8, 4, 2, 8, 0]\nclass = 7", fillcolor="#ffffff"] ;
386 -> 410 ;
411 [label="alcohol <= 10.615\ngini = 0.198\nsamples = 9\nvalue = [0, 0, 1, 0, 0, 8, 0]\nclass = 3", fillcolor="#bb52e8"] ;
410 -> 411 ;
412 [label="gini = 0.0\nsamples = 1\nvalue = [0, 0, 1, 0, 0, 0, 0]\nclass = 7", fillcolor="#39e54d"] ;
411 -> 412 ;
413 [label="gini = 0.0\nsamples = 8\nvalue = [0, 0, 0, 0, 0, 8, 0]\nclass = 3", fillcolor="#b139e5"] ;
411 -> 413 ;
414 [label="pH <= 3.185\ngini = 0.592\nsamples = 13\nvalue = [0, 0, 7, 4, 2, 0, 0]\nclass = 7", fillcolor="#bdf6c4"] ;
410 -> 414 ;
415 [label="alcohol <= 10.647\ngini = 0.48\nsamples = 5\nvalue = [0, 0, 0, 3, 2, 0, 0]\nclass = 8", fillcolor="#bdf6f5"] ;
414 -> 415 ;
416 [label="gini = 0.0\nsamples = 2\nvalue = [0, 0, 0, 2, 0, 0, 0]\nclass = 8", fillcolor="#39e5e2"] ;
415 -> 416 ;
417 [label="fixed acidity <= 7.0\ngini = 0.444\nsamples = 3\nvalue = [0, 0, 0, 1, 2, 0, 0]\nclass = 4", fillcolor="#9caaf2"] ;
415 -> 417 ;
418 [label="gini = 0.0\nsamples = 1\nvalue = [0, 0, 0, 1, 0, 0, 0]\nclass = 8", fillcolor="#39e5e2"] ;
417 -> 418 ;
419 [label="gini = 0.0\nsamples = 2\nvalue = [0, 0, 0, 0, 2, 0, 0]\nclass = 4", fillcolor="#3956e5"] ;
417 -> 419 ;
420 [label="citric acid <= 0.431\ngini = 0.219\nsamples = 8\nvalue = [0, 0, 7, 1, 0, 0, 0]\nclass = 7", fillcolor="#55e966"] ;
414 -> 420 ;
421 [label="gini = 0.0\nsamples = 7\nvalue = [0, 0, 7, 0, 0, 0, 0]\nclass = 7", fillcolor="#39e54d"] ;
420 -> 421 ;
422 [label="gini = 0.0\nsamples = 1\nvalue = [0, 0, 0, 1, 0, 0, 0]\nclass = 8", fillcolor="#39e5e2"] ;
420 -> 422 ;
423 [label="gini = 0.0\nsamples = 4\nvalue = [0, 0, 0, 0, 0, 4, 0]\nclass = 3", fillcolor="#b139e5"] ;
361 -> 423 ;
424 [label="residual sugar <= 10.246\ngini = 0.702\nsamples = 91\nvalue = [0, 0, 6, 25, 28, 32, 0]\nclass = 3", fillcolor="#faf2fd"] ;
360 -> 424 ;
425 [label="chlorides <= 0.051\ngini = 0.707\nsamples = 83\nvalue = [0, 0, 6, 25, 28, 24, 0]\nclass = 4", fillcolor="#f5f6fe"] ;
424 -> 425 ;
426 [label="total sulfur dioxide <= 107.061\ngini = 0.69\nsamples = 71\nvalue = [0, 0, 5, 23, 28, 15, 0]\nclass = 4", fillcolor="#eaedfc"] ;
425 -> 426 ;
427 [label="free sulfur dioxide <= 32.277\ngini = 0.711\nsamples = 27\nvalue = [0, 0, 4, 7, 5, 11, 0]\nclass = 3", fillcolor="#efd7fa"] ;
426 -> 427 ;
428 [label="pH <= 3.191\ngini = 0.74\nsamples = 22\nvalue = [0, 0, 4, 7, 5, 6, 0]\nclass = 8", fillcolor="#f3fdfd"] ;
427 -> 428 ;
429 [label="volatile acidity <= 0.187\ngini = 0.611\nsamples = 12\nvalue = [0, 0, 2, 6, 4, 0, 0]\nclass = 8", fillcolor="#cef8f8"] ;
428 -> 429 ;
430 [label="gini = 0.0\nsamples = 3\nvalue = [0, 0, 0, 0, 3, 0, 0]\nclass = 4", fillcolor="#3956e5"] ;
429 -> 430 ;
431 [label="volatile acidity <= 0.215\ngini = 0.494\nsamples = 9\nvalue = [0, 0, 2, 6, 1, 0, 0]\nclass = 8", fillcolor="#8ef0ee"] ;
429 -> 431 ;
432 [label="residual sugar <= 2.1\ngini = 0.278\nsamples = 6\nvalue = [0, 0, 0, 5, 1, 0, 0]\nclass = 8", fillcolor="#61eae8"] ;
431 -> 432 ;
433 [label="residual sugar <= 1.55\ngini = 0.5\nsamples = 2\nvalue = [0, 0, 0, 1, 1, 0, 0]\nclass = 8", fillcolor="#ffffff"] ;
432 -> 433 ;
434 [label="gini = 0.0\nsamples = 1\nvalue = [0, 0, 0, 1, 0, 0, 0]\nclass = 8", fillcolor="#39e5e2"] ;
433 -> 434 ;
435 [label="gini = 0.0\nsamples = 1\nvalue = [0, 0, 0, 0, 1, 0, 0]\nclass = 4", fillcolor="#3956e5"] ;
433 -> 435 ;
436 [label="gini = 0.0\nsamples = 4\nvalue = [0, 0, 0, 4, 0, 0, 0]\nclass = 8", fillcolor="#39e5e2"] ;
432 -> 436 ;
437 [label="total sulfur dioxide <= 94.5\ngini = 0.444\nsamples = 3\nvalue = [0, 0, 2, 1, 0, 0, 0]\nclass = 7", fillcolor="#9cf2a6"] ;
431 -> 437 ;
438 [label="gini = 0.0\nsamples = 1\nvalue = [0, 0, 0, 1, 0, 0, 0]\nclass = 8", fillcolor="#39e5e2"] ;
437 -> 438 ;
439 [label="gini = 0.0\nsamples = 2\nvalue = [0, 0, 2, 0, 0, 0, 0]\nclass = 7", fillcolor="#39e54d"] ;
437 -> 439 ;
440 [label="fixed acidity <= 6.358\ngini = 0.58\nsamples = 10\nvalue = [0, 0, 2, 1, 1, 6, 0]\nclass = 3", fillcolor="#d89cf2"] ;
428 -> 440 ;
441 [label="gini = 0.0\nsamples = 5\nvalue = [0, 0, 0, 0, 0, 5, 0]\nclass = 3", fillcolor="#b139e5"] ;
440 -> 441 ;
442 [label="citric acid <= 0.294\ngini = 0.72\nsamples = 5\nvalue = [0, 0, 2, 1, 1, 1, 0]\nclass = 7", fillcolor="#cef8d2"] ;
440 -> 442 ;
443 [label="fixed acidity <= 6.598\ngini = 0.5\nsamples = 2\nvalue = [0, 0, 0, 0, 1, 1, 0]\nclass = 4", fillcolor="#ffffff"] ;
442 -> 443 ;
444 [label="gini = 0.0\nsamples = 1\nvalue = [0, 0, 0, 0, 1, 0, 0]\nclass = 4", fillcolor="#3956e5"] ;
443 -> 444 ;
445 [label="gini = 0.0\nsamples = 1\nvalue = [0, 0, 0, 0, 0, 1, 0]\nclass = 3", fillcolor="#b139e5"] ;
443 -> 445 ;
446 [label="free sulfur dioxide <= 21.429\ngini = 0.444\nsamples = 3\nvalue = [0, 0, 2, 1, 0, 0, 0]\nclass = 7", fillcolor="#9cf2a6"] ;
442 -> 446 ;
447 [label="gini = 0.0\nsamples = 2\nvalue = [0, 0, 2, 0, 0, 0, 0]\nclass = 7", fillcolor="#39e54d"] ;
446 -> 447 ;
448 [label="gini = 0.0\nsamples = 1\nvalue = [0, 0, 0, 1, 0, 0, 0]\nclass = 8", fillcolor="#39e5e2"] ;
446 -> 448 ;
449 [label="gini = 0.0\nsamples = 5\nvalue = [0, 0, 0, 0, 0, 5, 0]\nclass = 3", fillcolor="#b139e5"] ;
427 -> 449 ;
450 [label="volatile acidity <= 0.17\ngini = 0.586\nsamples = 44\nvalue = [0, 0, 1, 16, 23, 4, 0]\nclass = 4", fillcolor="#ced5f8"] ;
426 -> 450 ;
451 [label="gini = 0.0\nsamples = 6\nvalue = [0, 0, 0, 6, 0, 0, 0]\nclass = 8", fillcolor="#39e5e2"] ;
450 -> 451 ;
452 [label="citric acid <= 0.319\ngini = 0.553\nsamples = 38\nvalue = [0, 0, 1, 10, 23, 4, 0]\nclass = 4", fillcolor="#a3b1f3"] ;
450 -> 452 ;
453 [label="chlorides <= 0.05\ngini = 0.227\nsamples = 16\nvalue = [0, 0, 0, 1, 14, 1, 0]\nclass = 4", fillcolor="#536de8"] ;
452 -> 453 ;
454 [label="sulphates <= 0.494\ngini = 0.124\nsamples = 15\nvalue = [0, 0, 0, 0, 14, 1, 0]\nclass = 4", fillcolor="#4762e7"] ;
453 -> 454 ;
455 [label="gini = 0.0\nsamples = 13\nvalue = [0, 0, 0, 0, 13, 0, 0]\nclass = 4", fillcolor="#3956e5"] ;
454 -> 455 ;
456 [label="volatile acidity <= 0.222\ngini = 0.5\nsamples = 2\nvalue = [0, 0, 0, 0, 1, 1, 0]\nclass = 4", fillcolor="#ffffff"] ;
454 -> 456 ;
457 [label="gini = 0.0\nsamples = 1\nvalue = [0, 0, 0, 0, 0, 1, 0]\nclass = 3", fillcolor="#b139e5"] ;
456 -> 457 ;
458 [label="gini = 0.0\nsamples = 1\nvalue = [0, 0, 0, 0, 1, 0, 0]\nclass = 4", fillcolor="#3956e5"] ;
456 -> 458 ;
459 [label="gini = 0.0\nsamples = 1\nvalue = [0, 0, 0, 1, 0, 0, 0]\nclass = 8", fillcolor="#39e5e2"] ;
453 -> 459 ;
460 [label="density <= 0.993\ngini = 0.645\nsamples = 22\nvalue = [0, 0, 1, 9, 9, 3, 0]\nclass = 8", fillcolor="#ffffff"] ;
452 -> 460 ;
461 [label="volatile acidity <= 0.252\ngini = 0.578\nsamples = 15\nvalue = [0, 0, 1, 9, 3, 2, 0]\nclass = 8", fillcolor="#9cf2f0"] ;
460 -> 461 ;
462 [label="fixed acidity <= 6.45\ngini = 0.462\nsamples = 13\nvalue = [0, 0, 1, 9, 3, 0, 0]\nclass = 8", fillcolor="#88efee"] ;
461 -> 462 ;
463 [label="residual sugar <= 1.253\ngini = 0.375\nsamples = 4\nvalue = [0, 0, 0, 1, 3, 0, 0]\nclass = 4", fillcolor="#7b8eee"] ;
462 -> 463 ;
464 [label="gini = 0.0\nsamples = 1\nvalue = [0, 0, 0, 1, 0, 0, 0]\nclass = 8", fillcolor="#39e5e2"] ;
463 -> 464 ;
465 [label="gini = 0.0\nsamples = 3\nvalue = [0, 0, 0, 0, 3, 0, 0]\nclass = 4", fillcolor="#3956e5"] ;
463 -> 465 ;
466 [label="fixed acidity <= 7.898\ngini = 0.198\nsamples = 9\nvalue = [0, 0, 1, 8, 0, 0, 0]\nclass = 8", fillcolor="#52e8e6"] ;
462 -> 466 ;
467 [label="gini = 0.0\nsamples = 8\nvalue = [0, 0, 0, 8, 0, 0, 0]\nclass = 8", fillcolor="#39e5e2"] ;
466 -> 467 ;
468 [label="gini = 0.0\nsamples = 1\nvalue = [0, 0, 1, 0, 0, 0, 0]\nclass = 7", fillcolor="#39e54d"] ;
466 -> 468 ;
469 [label="gini = 0.0\nsamples = 2\nvalue = [0, 0, 0, 0, 0, 2, 0]\nclass = 3", fillcolor="#b139e5"] ;
461 -> 469 ;
470 [label="residual sugar <= 9.93\ngini = 0.245\nsamples = 7\nvalue = [0, 0, 0, 0, 6, 1, 0]\nclass = 4", fillcolor="#5a72e9"] ;
460 -> 470 ;
471 [label="gini = 0.0\nsamples = 6\nvalue = [0, 0, 0, 0, 6, 0, 0]\nclass = 4", fillcolor="#3956e5"] ;
470 -> 471 ;
472 [label="gini = 0.0\nsamples = 1\nvalue = [0, 0, 0, 0, 0, 1, 0]\nclass = 3", fillcolor="#b139e5"] ;
470 -> 472 ;
473 [label="fixed acidity <= 7.777\ngini = 0.403\nsamples = 12\nvalue = [0, 0, 1, 2, 0, 9, 0]\nclass = 3", fillcolor="#c874ed"] ;
425 -> 473 ;
474 [label="free sulfur dioxide <= 49.842\ngini = 0.18\nsamples = 10\nvalue = [0, 0, 0, 1, 0, 9, 0]\nclass = 3", fillcolor="#ba4fe8"] ;
473 -> 474 ;
475 [label="gini = 0.0\nsamples = 9\nvalue = [0, 0, 0, 0, 0, 9, 0]\nclass = 3", fillcolor="#b139e5"] ;
474 -> 475 ;
476 [label="gini = 0.0\nsamples = 1\nvalue = [0, 0, 0, 1, 0, 0, 0]\nclass = 8", fillcolor="#39e5e2"] ;
474 -> 476 ;
477 [label="chlorides <= 0.057\ngini = 0.5\nsamples = 2\nvalue = [0, 0, 1, 1, 0, 0, 0]\nclass = 7", fillcolor="#ffffff"] ;
473 -> 477 ;
478 [label="gini = 0.0\nsamples = 1\nvalue = [0, 0, 1, 0, 0, 0, 0]\nclass = 7", fillcolor="#39e54d"] ;
477 -> 478 ;
479 [label="gini = 0.0\nsamples = 1\nvalue = [0, 0, 0, 1, 0, 0, 0]\nclass = 8", fillcolor="#39e5e2"] ;
477 -> 479 ;
480 [label="gini = 0.0\nsamples = 8\nvalue = [0, 0, 0, 0, 0, 8, 0]\nclass = 3", fillcolor="#b139e5"] ;
424 -> 480 ;
481 [label="free sulfur dioxide <= 29.416\ngini = 0.695\nsamples = 309\nvalue = [0, 28, 24, 113, 120, 24, 0]\nclass = 4", fillcolor="#f8f9fe"] ;
235 -> 481 ;
482 [label="fixed acidity <= 6.849\ngini = 0.718\nsamples = 122\nvalue = [0, 19, 16, 55, 21, 11, 0]\nclass = 8", fillcolor="#bcf6f5"] ;
481 -> 482 ;
483 [label="total sulfur dioxide <= 97.616\ngini = 0.62\nsamples = 61\nvalue = [0, 0, 4, 32, 18, 7, 0]\nclass = 8", fillcolor="#bff7f6"] ;
482 -> 483 ;
484 [label="volatile acidity <= 0.209\ngini = 0.662\nsamples = 32\nvalue = [0, 0, 1, 10, 14, 7, 0]\nclass = 4", fillcolor="#dbe0fa"] ;
483 -> 484 ;
485 [label="free sulfur dioxide <= 22.5\ngini = 0.496\nsamples = 22\nvalue = [0, 0, 0, 10, 12, 0, 0]\nclass = 4", fillcolor="#dee3fb"] ;
484 -> 485 ;
486 [label="free sulfur dioxide <= 16.5\ngini = 0.408\nsamples = 14\nvalue = [0, 0, 0, 10, 4, 0, 0]\nclass = 8", fillcolor="#88efee"] ;
485 -> 486 ;
487 [label="density <= 0.992\ngini = 0.49\nsamples = 7\nvalue = [0, 0, 0, 3, 4, 0, 0]\nclass = 4", fillcolor="#ced5f8"] ;
486 -> 487 ;
488 [label="gini = 0.0\nsamples = 3\nvalue = [0, 0, 0, 0, 3, 0, 0]\nclass = 4", fillcolor="#3956e5"] ;
487 -> 488 ;
489 [label="pH <= 3.575\ngini = 0.375\nsamples = 4\nvalue = [0, 0, 0, 3, 1, 0, 0]\nclass = 8", fillcolor="#7beeec"] ;
487 -> 489 ;
490 [label="gini = 0.0\nsamples = 3\nvalue = [0, 0, 0, 3, 0, 0, 0]\nclass = 8", fillcolor="#39e5e2"] ;
489 -> 490 ;
491 [label="gini = 0.0\nsamples = 1\nvalue = [0, 0, 0, 0, 1, 0, 0]\nclass = 4", fillcolor="#3956e5"] ;
489 -> 491 ;
492 [label="gini = 0.0\nsamples = 7\nvalue = [0, 0, 0, 7, 0, 0, 0]\nclass = 8", fillcolor="#39e5e2"] ;
486 -> 492 ;
493 [label="gini = 0.0\nsamples = 8\nvalue = [0, 0, 0, 0, 8, 0, 0]\nclass = 4", fillcolor="#3956e5"] ;
485 -> 493 ;
494 [label="alcohol <= 10.579\ngini = 0.46\nsamples = 10\nvalue = [0, 0, 1, 0, 2, 7, 0]\nclass = 3", fillcolor="#ce83ef"] ;
484 -> 494 ;
495 [label="alcohol <= 10.3\ngini = 0.5\nsamples = 2\nvalue = [0, 0, 1, 0, 1, 0, 0]\nclass = 7", fillcolor="#ffffff"] ;
494 -> 495 ;
496 [label="gini = 0.0\nsamples = 1\nvalue = [0, 0, 0, 0, 1, 0, 0]\nclass = 4", fillcolor="#3956e5"] ;
495 -> 496 ;
497 [label="gini = 0.0\nsamples = 1\nvalue = [0, 0, 1, 0, 0, 0, 0]\nclass = 7", fillcolor="#39e54d"] ;
495 -> 497 ;
498 [label="citric acid <= 0.302\ngini = 0.219\nsamples = 8\nvalue = [0, 0, 0, 0, 1, 7, 0]\nclass = 3", fillcolor="#bc55e9"] ;
494 -> 498 ;
499 [label="gini = 0.0\nsamples = 1\nvalue = [0, 0, 0, 0, 1, 0, 0]\nclass = 4", fillcolor="#3956e5"] ;
498 -> 499 ;
500 [label="gini = 0.0\nsamples = 7\nvalue = [0, 0, 0, 0, 0, 7, 0]\nclass = 3", fillcolor="#b139e5"] ;
498 -> 500 ;
501 [label="sulphates <= 0.535\ngini = 0.395\nsamples = 29\nvalue = [0, 0, 3, 22, 4, 0, 0]\nclass = 8", fillcolor="#70ecea"] ;
483 -> 501 ;
502 [label="alcohol <= 10.685\ngini = 0.64\nsamples = 5\nvalue = [0, 0, 2, 1, 2, 0, 0]\nclass = 7", fillcolor="#ffffff"] ;
501 -> 502 ;
503 [label="alcohol <= 10.35\ngini = 0.444\nsamples = 3\nvalue = [0, 0, 2, 1, 0, 0, 0]\nclass = 7", fillcolor="#9cf2a6"] ;
502 -> 503 ;
504 [label="gini = 0.0\nsamples = 1\nvalue = [0, 0, 0, 1, 0, 0, 0]\nclass = 8", fillcolor="#39e5e2"] ;
503 -> 504 ;
505 [label="gini = 0.0\nsamples = 2\nvalue = [0, 0, 2, 0, 0, 0, 0]\nclass = 7", fillcolor="#39e54d"] ;
503 -> 505 ;
506 [label="gini = 0.0\nsamples = 2\nvalue = [0, 0, 0, 0, 2, 0, 0]\nclass = 4", fillcolor="#3956e5"] ;
502 -> 506 ;
507 [label="residual sugar <= 3.524\ngini = 0.226\nsamples = 24\nvalue = [0, 0, 1, 21, 2, 0, 0]\nclass = 8", fillcolor="#54e9e6"] ;
501 -> 507 ;
508 [label="gini = 0.0\nsamples = 15\nvalue = [0, 0, 0, 15, 0, 0, 0]\nclass = 8", fillcolor="#39e5e2"] ;
507 -> 508 ;
509 [label="sulphates <= 0.56\ngini = 0.494\nsamples = 9\nvalue = [0, 0, 1, 6, 2, 0, 0]\nclass = 8", fillcolor="#8ef0ee"] ;
507 -> 509 ;
510 [label="gini = 0.0\nsamples = 1\nvalue = [0, 0, 1, 0, 0, 0, 0]\nclass = 7", fillcolor="#39e54d"] ;
509 -> 510 ;
511 [label="pH <= 3.388\ngini = 0.375\nsamples = 8\nvalue = [0, 0, 0, 6, 2, 0, 0]\nclass = 8", fillcolor="#7beeec"] ;
509 -> 511 ;
512 [label="free sulfur dioxide <= 28.5\ngini = 0.245\nsamples = 7\nvalue = [0, 0, 0, 6, 1, 0, 0]\nclass = 8", fillcolor="#5ae9e7"] ;
511 -> 512 ;
513 [label="gini = 0.0\nsamples = 6\nvalue = [0, 0, 0, 6, 0, 0, 0]\nclass = 8", fillcolor="#39e5e2"] ;
512 -> 513 ;
514 [label="gini = 0.0\nsamples = 1\nvalue = [0, 0, 0, 0, 1, 0, 0]\nclass = 4", fillcolor="#3956e5"] ;
512 -> 514 ;
515 [label="gini = 0.0\nsamples = 1\nvalue = [0, 0, 0, 0, 1, 0, 0]\nclass = 4", fillcolor="#3956e5"] ;
511 -> 515 ;
516 [label="density <= 0.993\ngini = 0.715\nsamples = 61\nvalue = [0, 19, 12, 23, 3, 4, 0]\nclass = 8", fillcolor="#ecfdfc"] ;
482 -> 516 ;
517 [label="sulphates <= 0.613\ngini = 0.538\nsamples = 24\nvalue = [0, 0, 11, 12, 1, 0, 0]\nclass = 8", fillcolor="#f0fdfd"] ;
516 -> 517 ;
518 [label="alcohol <= 10.7\ngini = 0.403\nsamples = 12\nvalue = [0, 0, 2, 9, 1, 0, 0]\nclass = 8", fillcolor="#74edeb"] ;
517 -> 518 ;
519 [label="chlorides <= 0.057\ngini = 0.198\nsamples = 9\nvalue = [0, 0, 0, 8, 1, 0, 0]\nclass = 8", fillcolor="#52e8e6"] ;
518 -> 519 ;
520 [label="gini = 0.0\nsamples = 8\nvalue = [0, 0, 0, 8, 0, 0, 0]\nclass = 8", fillcolor="#39e5e2"] ;
519 -> 520 ;
521 [label="gini = 0.0\nsamples = 1\nvalue = [0, 0, 0, 0, 1, 0, 0]\nclass = 4", fillcolor="#3956e5"] ;
519 -> 521 ;
522 [label="density <= 0.992\ngini = 0.444\nsamples = 3\nvalue = [0, 0, 2, 1, 0, 0, 0]\nclass = 7", fillcolor="#9cf2a6"] ;
518 -> 522 ;
523 [label="gini = 0.0\nsamples = 1\nvalue = [0, 0, 0, 1, 0, 0, 0]\nclass = 8", fillcolor="#39e5e2"] ;
522 -> 523 ;
524 [label="gini = 0.0\nsamples = 2\nvalue = [0, 0, 2, 0, 0, 0, 0]\nclass = 7", fillcolor="#39e54d"] ;
522 -> 524 ;
525 [label="volatile acidity <= 0.165\ngini = 0.375\nsamples = 12\nvalue = [0, 0, 9, 3, 0, 0, 0]\nclass = 7", fillcolor="#7bee88"] ;
517 -> 525 ;
526 [label="pH <= 3.077\ngini = 0.5\nsamples = 6\nvalue = [0, 0, 3, 3, 0, 0, 0]\nclass = 7", fillcolor="#ffffff"] ;
525 -> 526 ;
527 [label="gini = 0.0\nsamples = 2\nvalue = [0, 0, 2, 0, 0, 0, 0]\nclass = 7", fillcolor="#39e54d"] ;
526 -> 527 ;
528 [label="citric acid <= 0.345\ngini = 0.375\nsamples = 4\nvalue = [0, 0, 1, 3, 0, 0, 0]\nclass = 8", fillcolor="#7beeec"] ;
526 -> 528 ;
529 [label="gini = 0.0\nsamples = 1\nvalue = [0, 0, 1, 0, 0, 0, 0]\nclass = 7", fillcolor="#39e54d"] ;
528 -> 529 ;
530 [label="gini = 0.0\nsamples = 3\nvalue = [0, 0, 0, 3, 0, 0, 0]\nclass = 8", fillcolor="#39e5e2"] ;
528 -> 530 ;
531 [label="gini = 0.0\nsamples = 6\nvalue = [0, 0, 6, 0, 0, 0, 0]\nclass = 7", fillcolor="#39e54d"] ;
525 -> 531 ;
532 [label="alcohol <= 10.382\ngini = 0.633\nsamples = 37\nvalue = [0, 19, 1, 11, 2, 4, 0]\nclass = 5", fillcolor="#e9f7c2"] ;
516 -> 532 ;
533 [label="volatile acidity <= 0.188\ngini = 0.266\nsamples = 19\nvalue = [0, 16, 0, 3, 0, 0, 0]\nclass = 5", fillcolor="#c4ea5e"] ;
532 -> 533 ;
534 [label="gini = 0.0\nsamples = 3\nvalue = [0, 0, 0, 3, 0, 0, 0]\nclass = 8", fillcolor="#39e5e2"] ;
533 -> 534 ;
535 [label="gini = 0.0\nsamples = 16\nvalue = [0, 16, 0, 0, 0, 0, 0]\nclass = 5", fillcolor="#b7e539"] ;
533 -> 535 ;
536 [label="alcohol <= 10.85\ngini = 0.71\nsamples = 18\nvalue = [0, 3, 1, 8, 2, 4, 0]\nclass = 8", fillcolor="#c6f8f7"] ;
532 -> 536 ;
537 [label="fixed acidity <= 7.502\ngini = 0.602\nsamples = 14\nvalue = [0, 3, 1, 8, 2, 0, 0]\nclass = 8", fillcolor="#a5f3f2"] ;
536 -> 537 ;
538 [label="total sulfur dioxide <= 79.5\ngini = 0.43\nsamples = 11\nvalue = [0, 0, 1, 8, 2, 0, 0]\nclass = 8", fillcolor="#7beeec"] ;
537 -> 538 ;
539 [label="gini = 0.0\nsamples = 1\nvalue = [0, 0, 1, 0, 0, 0, 0]\nclass = 7", fillcolor="#39e54d"] ;
538 -> 539 ;
540 [label="sulphates <= 0.545\ngini = 0.32\nsamples = 10\nvalue = [0, 0, 0, 8, 2, 0, 0]\nclass = 8", fillcolor="#6aece9"] ;
538 -> 540 ;
541 [label="gini = 0.0\nsamples = 1\nvalue = [0, 0, 0, 0, 1, 0, 0]\nclass = 4", fillcolor="#3956e5"] ;
540 -> 541 ;
542 [label="citric acid <= 0.255\ngini = 0.198\nsamples = 9\nvalue = [0, 0, 0, 8, 1, 0, 0]\nclass = 8", fillcolor="#52e8e6"] ;
540 -> 542 ;
543 [label="gini = 0.0\nsamples = 1\nvalue = [0, 0, 0, 0, 1, 0, 0]\nclass = 4", fillcolor="#3956e5"] ;
542 -> 543 ;
544 [label="gini = 0.0\nsamples = 8\nvalue = [0, 0, 0, 8, 0, 0, 0]\nclass = 8", fillcolor="#39e5e2"] ;
542 -> 544 ;
545 [label="gini = 0.0\nsamples = 3\nvalue = [0, 3, 0, 0, 0, 0, 0]\nclass = 5", fillcolor="#b7e539"] ;
537 -> 545 ;
546 [label="gini = 0.0\nsamples = 4\nvalue = [0, 0, 0, 0, 0, 4, 0]\nclass = 3", fillcolor="#b139e5"] ;
536 -> 546 ;
547 [label="total sulfur dioxide <= 158.769\ngini = 0.615\nsamples = 187\nvalue = [0, 9, 8, 58, 99, 13, 0]\nclass = 4", fillcolor="#c0c9f7"] ;
481 -> 547 ;
548 [label="chlorides <= 0.052\ngini = 0.511\nsamples = 141\nvalue = [0, 0, 3, 33, 92, 13, 0]\nclass = 4", fillcolor="#93a3f1"] ;
547 -> 548 ;
549 [label="alcohol <= 10.984\ngini = 0.481\nsamples = 128\nvalue = [0, 0, 3, 24, 88, 13, 0]\nclass = 4", fillcolor="#8597ef"] ;
548 -> 549 ;
550 [label="total sulfur dioxide <= 146.25\ngini = 0.436\nsamples = 115\nvalue = [0, 0, 3, 16, 84, 12, 0]\nclass = 4", fillcolor="#778bed"] ;
549 -> 550 ;
551 [label="density <= 0.995\ngini = 0.375\nsamples = 93\nvalue = [0, 0, 3, 14, 72, 4, 0]\nclass = 4", fillcolor="#6e83ec"] ;
550 -> 551 ;
552 [label="fixed acidity <= 5.85\ngini = 0.336\nsamples = 87\nvalue = [0, 0, 3, 10, 70, 4, 0]\nclass = 4", fillcolor="#657beb"] ;
551 -> 552 ;
553 [label="free sulfur dioxide <= 39.0\ngini = 0.444\nsamples = 3\nvalue = [0, 0, 1, 2, 0, 0, 0]\nclass = 8", fillcolor="#9cf2f0"] ;
552 -> 553 ;
554 [label="gini = 0.0\nsamples = 1\nvalue = [0, 0, 1, 0, 0, 0, 0]\nclass = 7", fillcolor="#39e54d"] ;
553 -> 554 ;
555 [label="gini = 0.0\nsamples = 2\nvalue = [0, 0, 0, 2, 0, 0, 0]\nclass = 8", fillcolor="#39e5e2"] ;
553 -> 555 ;
556 [label="fixed acidity <= 7.558\ngini = 0.294\nsamples = 84\nvalue = [0, 0, 2, 8, 70, 4, 0]\nclass = 4", fillcolor="#5d75ea"] ;
552 -> 556 ;
557 [label="total sulfur dioxide <= 99.0\ngini = 0.246\nsamples = 81\nvalue = [0, 0, 2, 6, 70, 3, 0]\nclass = 4", fillcolor="#566fe9"] ;
556 -> 557 ;
558 [label="residual sugar <= 2.0\ngini = 0.611\nsamples = 6\nvalue = [0, 0, 0, 1, 2, 3, 0]\nclass = 3", fillcolor="#eccef8"] ;
557 -> 558 ;
559 [label="fixed acidity <= 7.056\ngini = 0.444\nsamples = 3\nvalue = [0, 0, 0, 1, 2, 0, 0]\nclass = 4", fillcolor="#9caaf2"] ;
558 -> 559 ;
560 [label="gini = 0.0\nsamples = 2\nvalue = [0, 0, 0, 0, 2, 0, 0]\nclass = 4", fillcolor="#3956e5"] ;
559 -> 560 ;
561 [label="gini = 0.0\nsamples = 1\nvalue = [0, 0, 0, 1, 0, 0, 0]\nclass = 8", fillcolor="#39e5e2"] ;
559 -> 561 ;
562 [label="gini = 0.0\nsamples = 3\nvalue = [0, 0, 0, 0, 0, 3, 0]\nclass = 3", fillcolor="#b139e5"] ;
558 -> 562 ;
563 [label="volatile acidity <= 0.258\ngini = 0.173\nsamples = 75\nvalue = [0, 0, 2, 5, 68, 0, 0]\nclass = 4", fillcolor="#4d67e8"] ;
557 -> 563 ;
564 [label="citric acid <= 0.215\ngini = 0.152\nsamples = 74\nvalue = [0, 0, 2, 4, 68, 0, 0]\nclass = 4", fillcolor="#4a64e7"] ;
563 -> 564 ;
565 [label="gini = 0.0\nsamples = 1\nvalue = [0, 0, 0, 1, 0, 0, 0]\nclass = 8", fillcolor="#39e5e2"] ;
564 -> 565 ;
566 [label="volatile acidity <= 0.254\ngini = 0.13\nsamples = 73\nvalue = [0, 0, 2, 3, 68, 0, 0]\nclass = 4", fillcolor="#4762e7"] ;
564 -> 566 ;
567 [label="chlorides <= 0.028\ngini = 0.108\nsamples = 71\nvalue = [0, 0, 1, 3, 67, 0, 0]\nclass = 4", fillcolor="#4560e7"] ;
566 -> 567 ;
568 [label="sulphates <= 0.64\ngini = 0.5\nsamples = 2\nvalue = [0, 0, 0, 1, 1, 0, 0]\nclass = 8", fillcolor="#ffffff"] ;
567 -> 568 ;
569 [label="gini = 0.0\nsamples = 1\nvalue = [0, 0, 0, 1, 0, 0, 0]\nclass = 8", fillcolor="#39e5e2"] ;
568 -> 569 ;
570 [label="gini = 0.0\nsamples = 1\nvalue = [0, 0, 0, 0, 1, 0, 0]\nclass = 4", fillcolor="#3956e5"] ;
568 -> 570 ;
571 [label="residual sugar <= 1.05\ngini = 0.084\nsamples = 69\nvalue = [0, 0, 1, 2, 66, 0, 0]\nclass = 4", fillcolor="#425ee6"] ;
567 -> 571 ;
572 [label="sulphates <= 0.615\ngini = 0.444\nsamples = 3\nvalue = [0, 0, 0, 1, 2, 0, 0]\nclass = 4", fillcolor="#9caaf2"] ;
571 -> 572 ;
573 [label="gini = 0.0\nsamples = 2\nvalue = [0, 0, 0, 0, 2, 0, 0]\nclass = 4", fillcolor="#3956e5"] ;
572 -> 573 ;
574 [label="gini = 0.0\nsamples = 1\nvalue = [0, 0, 0, 1, 0, 0, 0]\nclass = 8", fillcolor="#39e5e2"] ;
572 -> 574 ;
575 [label="citric acid <= 0.484\ngini = 0.059\nsamples = 66\nvalue = [0, 0, 1, 1, 64, 0, 0]\nclass = 4", fillcolor="#3f5be6"] ;
571 -> 575 ;
576 [label="pH <= 3.44\ngini = 0.031\nsamples = 63\nvalue = [0, 0, 1, 0, 62, 0, 0]\nclass = 4", fillcolor="#3c59e5"] ;
575 -> 576 ;
577 [label="gini = 0.0\nsamples = 53\nvalue = [0, 0, 0, 0, 53, 0, 0]\nclass = 4", fillcolor="#3956e5"] ;
576 -> 577 ;
578 [label="fixed acidity <= 6.121\ngini = 0.18\nsamples = 10\nvalue = [0, 0, 1, 0, 9, 0, 0]\nclass = 4", fillcolor="#4f69e8"] ;
576 -> 578 ;
579 [label="gini = 0.0\nsamples = 1\nvalue = [0, 0, 1, 0, 0, 0, 0]\nclass = 7", fillcolor="#39e54d"] ;
578 -> 579 ;
580 [label="gini = 0.0\nsamples = 9\nvalue = [0, 0, 0, 0, 9, 0, 0]\nclass = 4", fillcolor="#3956e5"] ;
578 -> 580 ;
581 [label="pH <= 3.063\ngini = 0.444\nsamples = 3\nvalue = [0, 0, 0, 1, 2, 0, 0]\nclass = 4", fillcolor="#9caaf2"] ;
575 -> 581 ;
582 [label="gini = 0.0\nsamples = 2\nvalue = [0, 0, 0, 0, 2, 0, 0]\nclass = 4", fillcolor="#3956e5"] ;
581 -> 582 ;
583 [label="gini = 0.0\nsamples = 1\nvalue = [0, 0, 0, 1, 0, 0, 0]\nclass = 8", fillcolor="#39e5e2"] ;
581 -> 583 ;
584 [label="volatile acidity <= 0.255\ngini = 0.5\nsamples = 2\nvalue = [0, 0, 1, 0, 1, 0, 0]\nclass = 7", fillcolor="#ffffff"] ;
566 -> 584 ;
585 [label="gini = 0.0\nsamples = 1\nvalue = [0, 0, 1, 0, 0, 0, 0]\nclass = 7", fillcolor="#39e54d"] ;
584 -> 585 ;
586 [label="gini = 0.0\nsamples = 1\nvalue = [0, 0, 0, 0, 1, 0, 0]\nclass = 4", fillcolor="#3956e5"] ;
584 -> 586 ;
587 [label="gini = 0.0\nsamples = 1\nvalue = [0, 0, 0, 1, 0, 0, 0]\nclass = 8", fillcolor="#39e5e2"] ;
563 -> 587 ;
588 [label="residual sugar <= 1.619\ngini = 0.444\nsamples = 3\nvalue = [0, 0, 0, 2, 0, 1, 0]\nclass = 8", fillcolor="#9cf2f0"] ;
556 -> 588 ;
589 [label="gini = 0.0\nsamples = 2\nvalue = [0, 0, 0, 2, 0, 0, 0]\nclass = 8", fillcolor="#39e5e2"] ;
588 -> 589 ;
590 [label="gini = 0.0\nsamples = 1\nvalue = [0, 0, 0, 0, 0, 1, 0]\nclass = 3", fillcolor="#b139e5"] ;
588 -> 590 ;
591 [label="fixed acidity <= 6.349\ngini = 0.444\nsamples = 6\nvalue = [0, 0, 0, 4, 2, 0, 0]\nclass = 8", fillcolor="#9cf2f0"] ;
551 -> 591 ;
592 [label="gini = 0.0\nsamples = 2\nvalue = [0, 0, 0, 0, 2, 0, 0]\nclass = 4", fillcolor="#3956e5"] ;
591 -> 592 ;
593 [label="gini = 0.0\nsamples = 4\nvalue = [0, 0, 0, 4, 0, 0, 0]\nclass = 8", fillcolor="#39e5e2"] ;
591 -> 593 ;
594 [label="density <= 0.993\ngini = 0.562\nsamples = 22\nvalue = [0, 0, 0, 2, 12, 8, 0]\nclass = 4", fillcolor="#c6cff8"] ;
550 -> 594 ;
595 [label="free sulfur dioxide <= 46.6\ngini = 0.43\nsamples = 11\nvalue = [0, 0, 0, 1, 2, 8, 0]\nclass = 3", fillcolor="#cb7bee"] ;
594 -> 595 ;
596 [label="gini = 0.0\nsamples = 8\nvalue = [0, 0, 0, 0, 0, 8, 0]\nclass = 3", fillcolor="#b139e5"] ;
595 -> 596 ;
597 [label="sulphates <= 0.665\ngini = 0.444\nsamples = 3\nvalue = [0, 0, 0, 1, 2, 0, 0]\nclass = 4", fillcolor="#9caaf2"] ;
595 -> 597 ;
598 [label="gini = 0.0\nsamples = 1\nvalue = [0, 0, 0, 1, 0, 0, 0]\nclass = 8", fillcolor="#39e5e2"] ;
597 -> 598 ;
599 [label="gini = 0.0\nsamples = 2\nvalue = [0, 0, 0, 0, 2, 0, 0]\nclass = 4", fillcolor="#3956e5"] ;
597 -> 599 ;
600 [label="total sulfur dioxide <= 155.413\ngini = 0.165\nsamples = 11\nvalue = [0, 0, 0, 1, 10, 0, 0]\nclass = 4", fillcolor="#4d67e8"] ;
594 -> 600 ;
601 [label="gini = 0.0\nsamples = 10\nvalue = [0, 0, 0, 0, 10, 0, 0]\nclass = 4", fillcolor="#3956e5"] ;
600 -> 601 ;
602 [label="gini = 0.0\nsamples = 1\nvalue = [0, 0, 0, 1, 0, 0, 0]\nclass = 8", fillcolor="#39e5e2"] ;
600 -> 602 ;
603 [label="pH <= 3.245\ngini = 0.521\nsamples = 13\nvalue = [0, 0, 0, 8, 4, 1, 0]\nclass = 8", fillcolor="#a7f3f2"] ;
549 -> 603 ;
604 [label="gini = 0.0\nsamples = 7\nvalue = [0, 0, 0, 7, 0, 0, 0]\nclass = 8", fillcolor="#39e5e2"] ;
603 -> 604 ;
605 [label="chlorides <= 0.036\ngini = 0.5\nsamples = 6\nvalue = [0, 0, 0, 1, 4, 1, 0]\nclass = 4", fillcolor="#889aef"] ;
603 -> 605 ;
606 [label="sulphates <= 0.625\ngini = 0.5\nsamples = 2\nvalue = [0, 0, 0, 1, 0, 1, 0]\nclass = 8", fillcolor="#ffffff"] ;
605 -> 606 ;
607 [label="gini = 0.0\nsamples = 1\nvalue = [0, 0, 0, 1, 0, 0, 0]\nclass = 8", fillcolor="#39e5e2"] ;
606 -> 607 ;
608 [label="gini = 0.0\nsamples = 1\nvalue = [0, 0, 0, 0, 0, 1, 0]\nclass = 3", fillcolor="#b139e5"] ;
606 -> 608 ;
609 [label="gini = 0.0\nsamples = 4\nvalue = [0, 0, 0, 0, 4, 0, 0]\nclass = 4", fillcolor="#3956e5"] ;
605 -> 609 ;
610 [label="residual sugar <= 1.2\ngini = 0.426\nsamples = 13\nvalue = [0, 0, 0, 9, 4, 0, 0]\nclass = 8", fillcolor="#91f1ef"] ;
548 -> 610 ;
611 [label="gini = 0.0\nsamples = 3\nvalue = [0, 0, 0, 0, 3, 0, 0]\nclass = 4", fillcolor="#3956e5"] ;
610 -> 611 ;
612 [label="sulphates <= 0.55\ngini = 0.18\nsamples = 10\nvalue = [0, 0, 0, 9, 1, 0, 0]\nclass = 8", fillcolor="#4fe8e5"] ;
610 -> 612 ;
613 [label="gini = 0.0\nsamples = 1\nvalue = [0, 0, 0, 0, 1, 0, 0]\nclass = 4", fillcolor="#3956e5"] ;
612 -> 613 ;
614 [label="gini = 0.0\nsamples = 9\nvalue = [0, 0, 0, 9, 0, 0, 0]\nclass = 8", fillcolor="#39e5e2"] ;
612 -> 614 ;
615 [label="residual sugar <= 6.625\ngini = 0.631\nsamples = 46\nvalue = [0, 9, 5, 25, 7, 0, 0]\nclass = 8", fillcolor="#a9f4f2"] ;
547 -> 615 ;
616 [label="density <= 0.996\ngini = 0.73\nsamples = 29\nvalue = [0, 9, 4, 9, 7, 0, 0]\nclass = 5", fillcolor="#ffffff"] ;
615 -> 616 ;
617 [label="sulphates <= 0.555\ngini = 0.69\nsamples = 22\nvalue = [0, 2, 4, 9, 7, 0, 0]\nclass = 8", fillcolor="#e5fcfb"] ;
616 -> 617 ;
618 [label="pH <= 3.454\ngini = 0.245\nsamples = 7\nvalue = [0, 0, 0, 1, 6, 0, 0]\nclass = 4", fillcolor="#5a72e9"] ;
617 -> 618 ;
619 [label="gini = 0.0\nsamples = 6\nvalue = [0, 0, 0, 0, 6, 0, 0]\nclass = 4", fillcolor="#3956e5"] ;
618 -> 619 ;
620 [label="gini = 0.0\nsamples = 1\nvalue = [0, 0, 0, 1, 0, 0, 0]\nclass = 8", fillcolor="#39e5e2"] ;
618 -> 620 ;
621 [label="free sulfur dioxide <= 41.5\ngini = 0.622\nsamples = 15\nvalue = [0, 2, 4, 8, 1, 0, 0]\nclass = 8", fillcolor="#b7f6f4"] ;
617 -> 621 ;
622 [label="fixed acidity <= 6.959\ngini = 0.611\nsamples = 6\nvalue = [0, 2, 3, 1, 0, 0, 0]\nclass = 7", fillcolor="#cef8d2"] ;
621 -> 622 ;
623 [label="gini = 0.0\nsamples = 3\nvalue = [0, 0, 3, 0, 0, 0, 0]\nclass = 7", fillcolor="#39e54d"] ;
622 -> 623 ;
624 [label="density <= 0.993\ngini = 0.444\nsamples = 3\nvalue = [0, 2, 0, 1, 0, 0, 0]\nclass = 5", fillcolor="#dbf29c"] ;
622 -> 624 ;
625 [label="gini = 0.0\nsamples = 1\nvalue = [0, 0, 0, 1, 0, 0, 0]\nclass = 8", fillcolor="#39e5e2"] ;
624 -> 625 ;
626 [label="gini = 0.0\nsamples = 2\nvalue = [0, 2, 0, 0, 0, 0, 0]\nclass = 5", fillcolor="#b7e539"] ;
624 -> 626 ;
627 [label="volatile acidity <= 0.247\ngini = 0.37\nsamples = 9\nvalue = [0, 0, 1, 7, 1, 0, 0]\nclass = 8", fillcolor="#6aece9"] ;
621 -> 627 ;
628 [label="chlorides <= 0.037\ngini = 0.219\nsamples = 8\nvalue = [0, 0, 1, 7, 0, 0, 0]\nclass = 8", fillcolor="#55e9e6"] ;
627 -> 628 ;
629 [label="gini = 0.0\nsamples = 1\nvalue = [0, 0, 1, 0, 0, 0, 0]\nclass = 7", fillcolor="#39e54d"] ;
628 -> 629 ;
630 [label="gini = 0.0\nsamples = 7\nvalue = [0, 0, 0, 7, 0, 0, 0]\nclass = 8", fillcolor="#39e5e2"] ;
628 -> 630 ;
631 [label="gini = 0.0\nsamples = 1\nvalue = [0, 0, 0, 0, 1, 0, 0]\nclass = 4", fillcolor="#3956e5"] ;
627 -> 631 ;
632 [label="gini = 0.0\nsamples = 7\nvalue = [0, 7, 0, 0, 0, 0, 0]\nclass = 5", fillcolor="#b7e539"] ;
616 -> 632 ;
633 [label="fixed acidity <= 6.3\ngini = 0.111\nsamples = 17\nvalue = [0, 0, 1, 16, 0, 0, 0]\nclass = 8", fillcolor="#45e7e4"] ;
615 -> 633 ;
634 [label="gini = 0.0\nsamples = 1\nvalue = [0, 0, 1, 0, 0, 0, 0]\nclass = 7", fillcolor="#39e54d"] ;
633 -> 634 ;
635 [label="gini = 0.0\nsamples = 16\nvalue = [0, 0, 0, 16, 0, 0, 0]\nclass = 8", fillcolor="#39e5e2"] ;
633 -> 635 ;
636 [label="fixed acidity <= 5.694\ngini = 0.756\nsamples = 579\nvalue = [202, 28, 129, 136, 70, 14, 0]\nclass = 6", fillcolor="#fbece2"] ;
4 -> 636 ;
637 [label="gini = 0.0\nsamples = 74\nvalue = [74, 0, 0, 0, 0, 0, 0]\nclass = 6", fillcolor="#e58139"] ;
636 -> 637 ;
638 [label="chlorides <= 0.054\ngini = 0.775\nsamples = 505\nvalue = [128, 28, 129, 136, 70, 14, 0]\nclass = 8", fillcolor="#fbfffe"] ;
636 -> 638 ;
639 [label="residual sugar <= 6.177\ngini = 0.74\nsamples = 326\nvalue = [20, 16, 102, 112, 62, 14, 0]\nclass = 8", fillcolor="#f6fefe"] ;
638 -> 639 ;
640 [label="free sulfur dioxide <= 35.701\ngini = 0.208\nsamples = 17\nvalue = [0, 15, 0, 2, 0, 0, 0]\nclass = 5", fillcolor="#c1e853"] ;
639 -> 640 ;
641 [label="gini = 0.0\nsamples = 2\nvalue = [0, 0, 0, 2, 0, 0, 0]\nclass = 8", fillcolor="#39e5e2"] ;
640 -> 641 ;
642 [label="gini = 0.0\nsamples = 15\nvalue = [0, 15, 0, 0, 0, 0, 0]\nclass = 5", fillcolor="#b7e539"] ;
640 -> 642 ;
643 [label="alcohol <= 8.684\ngini = 0.718\nsamples = 309\nvalue = [20, 1, 102, 110, 62, 14, 0]\nclass = 8", fillcolor="#f7fefe"] ;
639 -> 643 ;
644 [label="sulphates <= 0.716\ngini = 0.616\nsamples = 22\nvalue = [9, 0, 0, 2, 1, 10, 0]\nclass = 3", fillcolor="#f9f0fd"] ;
643 -> 644 ;
645 [label="density <= 0.999\ngini = 0.403\nsamples = 12\nvalue = [9, 0, 0, 2, 1, 0, 0]\nclass = 6", fillcolor="#eda774"] ;
644 -> 645 ;
646 [label="gini = 0.0\nsamples = 9\nvalue = [9, 0, 0, 0, 0, 0, 0]\nclass = 6", fillcolor="#e58139"] ;
645 -> 646 ;
647 [label="total sulfur dioxide <= 173.0\ngini = 0.444\nsamples = 3\nvalue = [0, 0, 0, 2, 1, 0, 0]\nclass = 8", fillcolor="#9cf2f0"] ;
645 -> 647 ;
648 [label="gini = 0.0\nsamples = 1\nvalue = [0, 0, 0, 0, 1, 0, 0]\nclass = 4", fillcolor="#3956e5"] ;
647 -> 648 ;
649 [label="gini = 0.0\nsamples = 2\nvalue = [0, 0, 0, 2, 0, 0, 0]\nclass = 8", fillcolor="#39e5e2"] ;
647 -> 649 ;
650 [label="gini = 0.0\nsamples = 10\nvalue = [0, 0, 0, 0, 0, 10, 0]\nclass = 3", fillcolor="#b139e5"] ;
644 -> 650 ;
651 [label="volatile acidity <= 0.207\ngini = 0.685\nsamples = 287\nvalue = [11, 1, 102, 108, 61, 4, 0]\nclass = 8", fillcolor="#f9fefe"] ;
643 -> 651 ;
652 [label="fixed acidity <= 6.85\ngini = 0.622\nsamples = 89\nvalue = [0, 0, 13, 40, 35, 1, 0]\nclass = 8", fillcolor="#edfdfc"] ;
651 -> 652 ;
653 [label="alcohol <= 10.527\ngini = 0.527\nsamples = 30\nvalue = [0, 0, 7, 19, 4, 0, 0]\nclass = 8", fillcolor="#98f1f0"] ;
652 -> 653 ;
654 [label="residual sugar <= 8.8\ngini = 0.461\nsamples = 27\nvalue = [0, 0, 4, 19, 4, 0, 0]\nclass = 8", fillcolor="#7eeeec"] ;
653 -> 654 ;
655 [label="gini = 0.0\nsamples = 2\nvalue = [0, 0, 0, 0, 2, 0, 0]\nclass = 4", fillcolor="#3956e5"] ;
654 -> 655 ;
656 [label="free sulfur dioxide <= 53.5\ngini = 0.39\nsamples = 25\nvalue = [0, 0, 4, 19, 2, 0, 0]\nclass = 8", fillcolor="#72ecea"] ;
654 -> 656 ;
657 [label="chlorides <= 0.034\ngini = 0.117\nsamples = 16\nvalue = [0, 0, 1, 15, 0, 0, 0]\nclass = 8", fillcolor="#46e7e4"] ;
656 -> 657 ;
658 [label="gini = 0.0\nsamples = 1\nvalue = [0, 0, 1, 0, 0, 0, 0]\nclass = 7", fillcolor="#39e54d"] ;
657 -> 658 ;
659 [label="gini = 0.0\nsamples = 15\nvalue = [0, 0, 0, 15, 0, 0, 0]\nclass = 8", fillcolor="#39e5e2"] ;
657 -> 659 ;
660 [label="alcohol <= 10.25\ngini = 0.642\nsamples = 9\nvalue = [0, 0, 3, 4, 2, 0, 0]\nclass = 8", fillcolor="#defbfa"] ;
656 -> 660 ;
661 [label="free sulfur dioxide <= 79.25\ngini = 0.49\nsamples = 7\nvalue = [0, 0, 3, 4, 0, 0, 0]\nclass = 8", fillcolor="#cef8f8"] ;
660 -> 661 ;
662 [label="total sulfur dioxide <= 147.0\ngini = 0.375\nsamples = 4\nvalue = [0, 0, 3, 1, 0, 0, 0]\nclass = 7", fillcolor="#7bee88"] ;
661 -> 662 ;
663 [label="gini = 0.0\nsamples = 1\nvalue = [0, 0, 0, 1, 0, 0, 0]\nclass = 8", fillcolor="#39e5e2"] ;
662 -> 663 ;
664 [label="gini = 0.0\nsamples = 3\nvalue = [0, 0, 3, 0, 0, 0, 0]\nclass = 7", fillcolor="#39e54d"] ;
662 -> 664 ;
665 [label="gini = 0.0\nsamples = 3\nvalue = [0, 0, 0, 3, 0, 0, 0]\nclass = 8", fillcolor="#39e5e2"] ;
661 -> 665 ;
666 [label="gini = 0.0\nsamples = 2\nvalue = [0, 0, 0, 0, 2, 0, 0]\nclass = 4", fillcolor="#3956e5"] ;
660 -> 666 ;
667 [label="gini = 0.0\nsamples = 3\nvalue = [0, 0, 3, 0, 0, 0, 0]\nclass = 7", fillcolor="#39e54d"] ;
653 -> 667 ;
668 [label="pH <= 3.207\ngini = 0.587\nsamples = 59\nvalue = [0, 0, 6, 21, 31, 1, 0]\nclass = 4", fillcolor="#cbd3f8"] ;
652 -> 668 ;
669 [label="citric acid <= 0.66\ngini = 0.519\nsamples = 50\nvalue = [0, 0, 4, 15, 31, 0, 0]\nclass = 4", fillcolor="#a4b2f3"] ;
668 -> 669 ;
670 [label="volatile acidity <= 0.199\ngini = 0.463\nsamples = 47\nvalue = [0, 0, 1, 15, 31, 0, 0]\nclass = 4", fillcolor="#9caaf2"] ;
669 -> 670 ;
671 [label="pH <= 2.925\ngini = 0.375\nsamples = 36\nvalue = [0, 0, 0, 9, 27, 0, 0]\nclass = 4", fillcolor="#7b8eee"] ;
670 -> 671 ;
672 [label="gini = 0.0\nsamples = 2\nvalue = [0, 0, 0, 2, 0, 0, 0]\nclass = 8", fillcolor="#39e5e2"] ;
671 -> 672 ;
673 [label="residual sugar <= 10.622\ngini = 0.327\nsamples = 34\nvalue = [0, 0, 0, 7, 27, 0, 0]\nclass = 4", fillcolor="#6c82ec"] ;
671 -> 673 ;
674 [label="gini = 0.0\nsamples = 2\nvalue = [0, 0, 0, 2, 0, 0, 0]\nclass = 8", fillcolor="#39e5e2"] ;
673 -> 674 ;
675 [label="fixed acidity <= 7.795\ngini = 0.264\nsamples = 32\nvalue = [0, 0, 0, 5, 27, 0, 0]\nclass = 4", fillcolor="#5e75ea"] ;
673 -> 675 ;
676 [label="sulphates <= 0.355\ngini = 0.185\nsamples = 29\nvalue = [0, 0, 0, 3, 26, 0, 0]\nclass = 4", fillcolor="#506ae8"] ;
675 -> 676 ;
677 [label="gini = 0.0\nsamples = 1\nvalue = [0, 0, 0, 1, 0, 0, 0]\nclass = 8", fillcolor="#39e5e2"] ;
676 -> 677 ;
678 [label="chlorides <= 0.046\ngini = 0.133\nsamples = 28\nvalue = [0, 0, 0, 2, 26, 0, 0]\nclass = 4", fillcolor="#4863e7"] ;
676 -> 678 ;
679 [label="sulphates <= 0.51\ngini = 0.444\nsamples = 6\nvalue = [0, 0, 0, 2, 4, 0, 0]\nclass = 4", fillcolor="#9caaf2"] ;
678 -> 679 ;
680 [label="gini = 0.0\nsamples = 2\nvalue = [0, 0, 0, 2, 0, 0, 0]\nclass = 8", fillcolor="#39e5e2"] ;
679 -> 680 ;
681 [label="gini = 0.0\nsamples = 4\nvalue = [0, 0, 0, 0, 4, 0, 0]\nclass = 4", fillcolor="#3956e5"] ;
679 -> 681 ;
682 [label="gini = 0.0\nsamples = 22\nvalue = [0, 0, 0, 0, 22, 0, 0]\nclass = 4", fillcolor="#3956e5"] ;
678 -> 682 ;
683 [label="residual sugar <= 15.3\ngini = 0.444\nsamples = 3\nvalue = [0, 0, 0, 2, 1, 0, 0]\nclass = 8", fillcolor="#9cf2f0"] ;
675 -> 683 ;
684 [label="gini = 0.0\nsamples = 2\nvalue = [0, 0, 0, 2, 0, 0, 0]\nclass = 8", fillcolor="#39e5e2"] ;
683 -> 684 ;
685 [label="gini = 0.0\nsamples = 1\nvalue = [0, 0, 0, 0, 1, 0, 0]\nclass = 4", fillcolor="#3956e5"] ;
683 -> 685 ;
686 [label="sulphates <= 0.515\ngini = 0.562\nsamples = 11\nvalue = [0, 0, 1, 6, 4, 0, 0]\nclass = 8", fillcolor="#c6f8f7"] ;
670 -> 686 ;
687 [label="gini = 0.0\nsamples = 6\nvalue = [0, 0, 0, 6, 0, 0, 0]\nclass = 8", fillcolor="#39e5e2"] ;
686 -> 687 ;
688 [label="total sulfur dioxide <= 170.586\ngini = 0.32\nsamples = 5\nvalue = [0, 0, 1, 0, 4, 0, 0]\nclass = 4", fillcolor="#6a80ec"] ;
686 -> 688 ;
689 [label="gini = 0.0\nsamples = 4\nvalue = [0, 0, 0, 0, 4, 0, 0]\nclass = 4", fillcolor="#3956e5"] ;
688 -> 689 ;
690 [label="gini = 0.0\nsamples = 1\nvalue = [0, 0, 1, 0, 0, 0, 0]\nclass = 7", fillcolor="#39e54d"] ;
688 -> 690 ;
691 [label="gini = 0.0\nsamples = 3\nvalue = [0, 0, 3, 0, 0, 0, 0]\nclass = 7", fillcolor="#39e54d"] ;
669 -> 691 ;
692 [label="total sulfur dioxide <= 157.0\ngini = 0.494\nsamples = 9\nvalue = [0, 0, 2, 6, 0, 1, 0]\nclass = 8", fillcolor="#8ef0ee"] ;
668 -> 692 ;
693 [label="alcohol <= 9.016\ngini = 0.5\nsamples = 2\nvalue = [0, 0, 1, 0, 0, 1, 0]\nclass = 7", fillcolor="#ffffff"] ;
692 -> 693 ;
694 [label="gini = 0.0\nsamples = 1\nvalue = [0, 0, 0, 0, 0, 1, 0]\nclass = 3", fillcolor="#b139e5"] ;
693 -> 694 ;
695 [label="gini = 0.0\nsamples = 1\nvalue = [0, 0, 1, 0, 0, 0, 0]\nclass = 7", fillcolor="#39e54d"] ;
693 -> 695 ;
696 [label="alcohol <= 10.05\ngini = 0.245\nsamples = 7\nvalue = [0, 0, 1, 6, 0, 0, 0]\nclass = 8", fillcolor="#5ae9e7"] ;
692 -> 696 ;
697 [label="gini = 0.0\nsamples = 6\nvalue = [0, 0, 0, 6, 0, 0, 0]\nclass = 8", fillcolor="#39e5e2"] ;
696 -> 697 ;
698 [label="gini = 0.0\nsamples = 1\nvalue = [0, 0, 1, 0, 0, 0, 0]\nclass = 7", fillcolor="#39e54d"] ;
696 -> 698 ;
699 [label="sulphates <= 0.45\ngini = 0.659\nsamples = 198\nvalue = [11, 1, 89, 68, 26, 3, 0]\nclass = 7", fillcolor="#dffbe2"] ;
651 -> 699 ;
700 [label="chlorides <= 0.046\ngini = 0.447\nsamples = 67\nvalue = [0, 0, 47, 16, 4, 0, 0]\nclass = 7", fillcolor="#87ef93"] ;
699 -> 700 ;
701 [label="alcohol <= 9.691\ngini = 0.528\nsamples = 38\nvalue = [0, 0, 23, 12, 3, 0, 0]\nclass = 7", fillcolor="#abf4b4"] ;
700 -> 701 ;
702 [label="residual sugar <= 12.35\ngini = 0.39\nsamples = 28\nvalue = [0, 0, 21, 6, 1, 0, 0]\nclass = 7", fillcolor="#78ed86"] ;
701 -> 702 ;
703 [label="gini = 0.0\nsamples = 12\nvalue = [0, 0, 12, 0, 0, 0, 0]\nclass = 7", fillcolor="#39e54d"] ;
702 -> 703 ;
704 [label="pH <= 3.29\ngini = 0.539\nsamples = 16\nvalue = [0, 0, 9, 6, 1, 0, 0]\nclass = 7", fillcolor="#c4f7ca"] ;
702 -> 704 ;
705 [label="free sulfur dioxide <= 42.0\ngini = 0.48\nsamples = 10\nvalue = [0, 0, 4, 6, 0, 0, 0]\nclass = 8", fillcolor="#bdf6f5"] ;
704 -> 705 ;
706 [label="gini = 0.0\nsamples = 4\nvalue = [0, 0, 0, 4, 0, 0, 0]\nclass = 8", fillcolor="#39e5e2"] ;
705 -> 706 ;
707 [label="fixed acidity <= 6.8\ngini = 0.444\nsamples = 6\nvalue = [0, 0, 4, 2, 0, 0, 0]\nclass = 7", fillcolor="#9cf2a6"] ;
705 -> 707 ;
708 [label="gini = 0.0\nsamples = 4\nvalue = [0, 0, 4, 0, 0, 0, 0]\nclass = 7", fillcolor="#39e54d"] ;
707 -> 708 ;
709 [label="gini = 0.0\nsamples = 2\nvalue = [0, 0, 0, 2, 0, 0, 0]\nclass = 8", fillcolor="#39e5e2"] ;
707 -> 709 ;
710 [label="citric acid <= 0.355\ngini = 0.278\nsamples = 6\nvalue = [0, 0, 5, 0, 1, 0, 0]\nclass = 7", fillcolor="#61ea71"] ;
704 -> 710 ;
711 [label="gini = 0.0\nsamples = 5\nvalue = [0, 0, 5, 0, 0, 0, 0]\nclass = 7", fillcolor="#39e54d"] ;
710 -> 711 ;
712 [label="gini = 0.0\nsamples = 1\nvalue = [0, 0, 0, 0, 1, 0, 0]\nclass = 4", fillcolor="#3956e5"] ;
710 -> 712 ;
713 [label="pH <= 3.366\ngini = 0.56\nsamples = 10\nvalue = [0, 0, 2, 6, 2, 0, 0]\nclass = 8", fillcolor="#9cf2f0"] ;
701 -> 713 ;
714 [label="volatile acidity <= 0.235\ngini = 0.375\nsamples = 8\nvalue = [0, 0, 2, 6, 0, 0, 0]\nclass = 8", fillcolor="#7beeec"] ;
713 -> 714 ;
715 [label="free sulfur dioxide <= 53.5\ngini = 0.444\nsamples = 3\nvalue = [0, 0, 2, 1, 0, 0, 0]\nclass = 7", fillcolor="#9cf2a6"] ;
714 -> 715 ;
716 [label="gini = 0.0\nsamples = 1\nvalue = [0, 0, 0, 1, 0, 0, 0]\nclass = 8", fillcolor="#39e5e2"] ;
715 -> 716 ;
717 [label="gini = 0.0\nsamples = 2\nvalue = [0, 0, 2, 0, 0, 0, 0]\nclass = 7", fillcolor="#39e54d"] ;
715 -> 717 ;
718 [label="gini = 0.0\nsamples = 5\nvalue = [0, 0, 0, 5, 0, 0, 0]\nclass = 8", fillcolor="#39e5e2"] ;
714 -> 718 ;
719 [label="gini = 0.0\nsamples = 2\nvalue = [0, 0, 0, 0, 2, 0, 0]\nclass = 4", fillcolor="#3956e5"] ;
713 -> 719 ;
720 [label="fixed acidity <= 7.25\ngini = 0.295\nsamples = 29\nvalue = [0, 0, 24, 4, 1, 0, 0]\nclass = 7", fillcolor="#61ea71"] ;
700 -> 720 ;
721 [label="pH <= 3.505\ngini = 0.147\nsamples = 25\nvalue = [0, 0, 23, 2, 0, 0, 0]\nclass = 7", fillcolor="#4ae75c"] ;
720 -> 721 ;
722 [label="free sulfur dioxide <= 32.0\ngini = 0.08\nsamples = 24\nvalue = [0, 0, 23, 1, 0, 0, 0]\nclass = 7", fillcolor="#42e655"] ;
721 -> 722 ;
723 [label="free sulfur dioxide <= 26.0\ngini = 0.5\nsamples = 2\nvalue = [0, 0, 1, 1, 0, 0, 0]\nclass = 7", fillcolor="#ffffff"] ;
722 -> 723 ;
724 [label="gini = 0.0\nsamples = 1\nvalue = [0, 0, 1, 0, 0, 0, 0]\nclass = 7", fillcolor="#39e54d"] ;
723 -> 724 ;
725 [label="gini = 0.0\nsamples = 1\nvalue = [0, 0, 0, 1, 0, 0, 0]\nclass = 8", fillcolor="#39e5e2"] ;
723 -> 725 ;
726 [label="gini = 0.0\nsamples = 22\nvalue = [0, 0, 22, 0, 0, 0, 0]\nclass = 7", fillcolor="#39e54d"] ;
722 -> 726 ;
727 [label="gini = 0.0\nsamples = 1\nvalue = [0, 0, 0, 1, 0, 0, 0]\nclass = 8", fillcolor="#39e5e2"] ;
721 -> 727 ;
728 [label="volatile acidity <= 0.245\ngini = 0.625\nsamples = 4\nvalue = [0, 0, 1, 2, 1, 0, 0]\nclass = 8", fillcolor="#bdf6f5"] ;
720 -> 728 ;
729 [label="gini = 0.0\nsamples = 2\nvalue = [0, 0, 0, 2, 0, 0, 0]\nclass = 8", fillcolor="#39e5e2"] ;
728 -> 729 ;
730 [label="pH <= 3.245\ngini = 0.5\nsamples = 2\nvalue = [0, 0, 1, 0, 1, 0, 0]\nclass = 7", fillcolor="#ffffff"] ;
728 -> 730 ;
731 [label="gini = 0.0\nsamples = 1\nvalue = [0, 0, 0, 0, 1, 0, 0]\nclass = 4", fillcolor="#3956e5"] ;
730 -> 731 ;
732 [label="gini = 0.0\nsamples = 1\nvalue = [0, 0, 1, 0, 0, 0, 0]\nclass = 7", fillcolor="#39e54d"] ;
730 -> 732 ;
733 [label="fixed acidity <= 6.038\ngini = 0.704\nsamples = 131\nvalue = [11, 1, 42, 52, 22, 3, 0]\nclass = 8", fillcolor="#e9fcfc"] ;
699 -> 733 ;
734 [label="citric acid <= 0.277\ngini = 0.486\nsamples = 12\nvalue = [7, 0, 0, 5, 0, 0, 0]\nclass = 6", fillcolor="#f8dbc6"] ;
733 -> 734 ;
735 [label="gini = 0.0\nsamples = 5\nvalue = [0, 0, 0, 5, 0, 0, 0]\nclass = 8", fillcolor="#39e5e2"] ;
734 -> 735 ;
736 [label="gini = 0.0\nsamples = 7\nvalue = [7, 0, 0, 0, 0, 0, 0]\nclass = 6", fillcolor="#e58139"] ;
734 -> 736 ;
737 [label="chlorides <= 0.046\ngini = 0.683\nsamples = 119\nvalue = [4, 1, 42, 47, 22, 3, 0]\nclass = 8", fillcolor="#f2fdfd"] ;
733 -> 737 ;
738 [label="residual sugar <= 8.541\ngini = 0.691\nsamples = 54\nvalue = [4, 0, 9, 25, 13, 3, 0]\nclass = 8", fillcolor="#c5f7f7"] ;
737 -> 738 ;
739 [label="gini = 0.0\nsamples = 4\nvalue = [4, 0, 0, 0, 0, 0, 0]\nclass = 6", fillcolor="#e58139"] ;
738 -> 739 ;
740 [label="sulphates <= 0.605\ngini = 0.646\nsamples = 50\nvalue = [0, 0, 9, 25, 13, 3, 0]\nclass = 8", fillcolor="#bff7f6"] ;
738 -> 740 ;
741 [label="volatile acidity <= 0.249\ngini = 0.531\nsamples = 39\nvalue = [0, 0, 4, 24, 11, 0, 0]\nclass = 8", fillcolor="#a3f3f2"] ;
740 -> 741 ;
742 [label="chlorides <= 0.043\ngini = 0.595\nsamples = 26\nvalue = [0, 0, 3, 12, 11, 0, 0]\nclass = 8", fillcolor="#f2fdfd"] ;
741 -> 742 ;
743 [label="total sulfur dioxide <= 170.556\ngini = 0.549\nsamples = 18\nvalue = [0, 0, 3, 11, 4, 0, 0]\nclass = 8", fillcolor="#9cf2f0"] ;
742 -> 743 ;
744 [label="free sulfur dioxide <= 29.944\ngini = 0.642\nsamples = 9\nvalue = [0, 0, 2, 3, 4, 0, 0]\nclass = 4", fillcolor="#dee3fb"] ;
743 -> 744 ;
745 [label="gini = 0.0\nsamples = 3\nvalue = [0, 0, 0, 3, 0, 0, 0]\nclass = 8", fillcolor="#39e5e2"] ;
744 -> 745 ;
746 [label="alcohol <= 9.47\ngini = 0.444\nsamples = 6\nvalue = [0, 0, 2, 0, 4, 0, 0]\nclass = 4", fillcolor="#9caaf2"] ;
744 -> 746 ;
747 [label="fixed acidity <= 7.705\ngini = 0.444\nsamples = 3\nvalue = [0, 0, 2, 0, 1, 0, 0]\nclass = 7", fillcolor="#9cf2a6"] ;
746 -> 747 ;
748 [label="gini = 0.0\nsamples = 2\nvalue = [0, 0, 2, 0, 0, 0, 0]\nclass = 7", fillcolor="#39e54d"] ;
747 -> 748 ;
749 [label="gini = 0.0\nsamples = 1\nvalue = [0, 0, 0, 0, 1, 0, 0]\nclass = 4", fillcolor="#3956e5"] ;
747 -> 749 ;
750 [label="gini = 0.0\nsamples = 3\nvalue = [0, 0, 0, 0, 3, 0, 0]\nclass = 4", fillcolor="#3956e5"] ;
746 -> 750 ;
751 [label="sulphates <= 0.515\ngini = 0.198\nsamples = 9\nvalue = [0, 0, 1, 8, 0, 0, 0]\nclass = 8", fillcolor="#52e8e6"] ;
743 -> 751 ;
752 [label="sulphates <= 0.485\ngini = 0.5\nsamples = 2\nvalue = [0, 0, 1, 1, 0, 0, 0]\nclass = 7", fillcolor="#ffffff"] ;
751 -> 752 ;
753 [label="gini = 0.0\nsamples = 1\nvalue = [0, 0, 0, 1, 0, 0, 0]\nclass = 8", fillcolor="#39e5e2"] ;
752 -> 753 ;
754 [label="gini = 0.0\nsamples = 1\nvalue = [0, 0, 1, 0, 0, 0, 0]\nclass = 7", fillcolor="#39e54d"] ;
752 -> 754 ;
755 [label="gini = 0.0\nsamples = 7\nvalue = [0, 0, 0, 7, 0, 0, 0]\nclass = 8", fillcolor="#39e5e2"] ;
751 -> 755 ;
756 [label="citric acid <= 0.431\ngini = 0.219\nsamples = 8\nvalue = [0, 0, 0, 1, 7, 0, 0]\nclass = 4", fillcolor="#556ee9"] ;
742 -> 756 ;
757 [label="gini = 0.0\nsamples = 7\nvalue = [0, 0, 0, 0, 7, 0, 0]\nclass = 4", fillcolor="#3956e5"] ;
756 -> 757 ;
758 [label="gini = 0.0\nsamples = 1\nvalue = [0, 0, 0, 1, 0, 0, 0]\nclass = 8", fillcolor="#39e5e2"] ;
756 -> 758 ;
759 [label="citric acid <= 0.195\ngini = 0.142\nsamples = 13\nvalue = [0, 0, 1, 12, 0, 0, 0]\nclass = 8", fillcolor="#49e7e4"] ;
741 -> 759 ;
760 [label="gini = 0.0\nsamples = 1\nvalue = [0, 0, 1, 0, 0, 0, 0]\nclass = 7", fillcolor="#39e54d"] ;
759 -> 760 ;
761 [label="gini = 0.0\nsamples = 12\nvalue = [0, 0, 0, 12, 0, 0, 0]\nclass = 8", fillcolor="#39e5e2"] ;
759 -> 761 ;
762 [label="total sulfur dioxide <= 176.348\ngini = 0.678\nsamples = 11\nvalue = [0, 0, 5, 1, 2, 3, 0]\nclass = 7", fillcolor="#cef8d2"] ;
740 -> 762 ;
763 [label="citric acid <= 0.4\ngini = 0.611\nsamples = 6\nvalue = [0, 0, 0, 1, 2, 3, 0]\nclass = 3", fillcolor="#eccef8"] ;
762 -> 763 ;
764 [label="citric acid <= 0.292\ngini = 0.444\nsamples = 3\nvalue = [0, 0, 0, 1, 2, 0, 0]\nclass = 4", fillcolor="#9caaf2"] ;
763 -> 764 ;
765 [label="gini = 0.0\nsamples = 1\nvalue = [0, 0, 0, 1, 0, 0, 0]\nclass = 8", fillcolor="#39e5e2"] ;
764 -> 765 ;
766 [label="gini = 0.0\nsamples = 2\nvalue = [0, 0, 0, 0, 2, 0, 0]\nclass = 4", fillcolor="#3956e5"] ;
764 -> 766 ;
767 [label="gini = 0.0\nsamples = 3\nvalue = [0, 0, 0, 0, 0, 3, 0]\nclass = 3", fillcolor="#b139e5"] ;
763 -> 767 ;
768 [label="gini = 0.0\nsamples = 5\nvalue = [0, 0, 5, 0, 0, 0, 0]\nclass = 7", fillcolor="#39e54d"] ;
762 -> 768 ;
769 [label="density <= 0.999\ngini = 0.608\nsamples = 65\nvalue = [0, 1, 33, 22, 9, 0, 0]\nclass = 7", fillcolor="#ccf8d1"] ;
737 -> 769 ;
770 [label="volatile acidity <= 0.226\ngini = 0.512\nsamples = 47\nvalue = [0, 1, 30, 13, 3, 0, 0]\nclass = 7", fillcolor="#9cf2a6"] ;
769 -> 770 ;
771 [label="volatile acidity <= 0.22\ngini = 0.444\nsamples = 6\nvalue = [0, 0, 0, 4, 2, 0, 0]\nclass = 8", fillcolor="#9cf2f0"] ;
770 -> 771 ;
772 [label="gini = 0.0\nsamples = 4\nvalue = [0, 0, 0, 4, 0, 0, 0]\nclass = 8", fillcolor="#39e5e2"] ;
771 -> 772 ;
773 [label="gini = 0.0\nsamples = 2\nvalue = [0, 0, 0, 0, 2, 0, 0]\nclass = 4", fillcolor="#3956e5"] ;
771 -> 773 ;
774 [label="density <= 0.997\ngini = 0.415\nsamples = 41\nvalue = [0, 1, 30, 9, 1, 0, 0]\nclass = 7", fillcolor="#7dee8a"] ;
770 -> 774 ;
